{"learner":{"attributes":{"scikit_learn":"{\"_estimator_type\": \"classifier\"}"},"feature_names":[],"feature_types":[],"gradient_booster":{"model":{"cats":{"enc":[],"feature_segments":[],"sorted_idx":[]},"gbtree_model_param":{"num_parallel_tree":"1","num_trees":"1200"},"iteration_indptr":[0,3,6,9,12,15,18,21,24,27,30,33,36,39,42,45,48,51,54,57,60,63,66,69,72,75,78,81,84,87,90,93,96,99,102,105,108,111,114,117,120,123,126,129,132,135,138,141,144,147,150,153,156,159,162,165,168,171,174,177,180,183,186,189,192,195,198,201,204,207,210,213,216,219,222,225,228,231,234,237,240,243,246,249,252,255,258,261,264,267,270,273,276,279,282,285,288,291,294,297,300,303,306,309,312,315,318,321,324,327,330,333,336,339,342,345,348,351,354,357,360,363,366,369,372,375,378,381,384,387,390,393,396,399,402,405,408,411,414,417,420,423,426,429,432,435,438,441,444,447,450,453,456,459,462,465,468,471,474,477,480,483,486,489,492,495,498,501,504,507,510,513,516,519,522,525,528,531,534,537,540,543,546,549,552,555,558,561,564,567,570,573,576,579,582,585,588,591,594,597,600,603,606,609,612,615,618,621,624,627,630,633,636,639,642,645,648,651,654,657,660,663,666,669,672,675,678,681,684,687,690,693,696,699,702,705,708,711,714,717,720,723,726,729,732,735,738,741,744,747,750,753,756,759,762,765,768,771,774,777,780,783,786,789,792,795,798,801,804,807,810,813,816,819,822,825,828,831,834,837,840,843,846,849,852,855,858,861,864,867,870,873,876,879,882,885,888,891,894,897,900,903,906,909,912,915,918,921,924,927,930,933,936,939,942,945,948,951,954,957,960,963,966,969,972,975,978,981,984,987,990,993,996,999,1002,1005,1008,1011,1014,1017,1020,1023,1026,1029,1032,1035,1038,1041,1044,1047,1050,1053,1056,1059,1062,1065,1068,1071,1074,1077,1080,1083,1086,1089,1092,1095,1098,1101,1104,1107,1110,1113,1116,1119,1122,1125,1128,1131,1134,1137,1140,1143,1146,1149,1152,1155,1158,1161,1164,1167,1170,1173,1176,1179,1182,1185,1188,1191,1194,1197,1200],"tree_info":[0,1,2,0,1,2,0,1,2,0,1,2,0,1,2,0,1,2,0,1,2,0,1,2,0,1,2,0,1,2,0,1,2,0,1,2,0,1,2,0,1,2,0,1,2,0,1,2,0,1,2,0,1,2,0,1,2,0,1,2,0,1,2,0,1,2,0,1,2,0,1,2,0,1,2,0,1,2,0,1,2,0,1,2,0,1,2,0,1,2,0,1,2,0,1,2,0,1,2,0,1,2,0,1,2,0,1,2,0,1,2,0,1,2,0,1,2,0,1,2,0,1,2,0,1,2,0,1,2,0,1,2,0,1,2,0,1,2,0,1,2,0,1,2,0,1,2,0,1,2,0,1,2,0,1,2,0,1,2,0,1,2,0,1,2,0,1,2,0,1,2,0,1,2,0,1,2,0,1,2,0,1,2,0,1,2,0,1,2,0,1,2,0,1,2,0,1,2,0,1,2,0,1,2,0,1,2,0,1,2,0,1,2,0,1,2,0,1,2,0,1,2,0,1,2,0,1,2,0,1,2,0,1,2,0,1,2,0,1,2,0,1,2,0,1,2,0,1,2,0,1,2,0,1,2,0,1,2,0,1,2,0,1,2,0,1,2,0,1,2,0,1,2,0,1,2,0,1,2,0,1,2,0,1,2,0,1,2,0,1,2,0,1,2,0,1,2,0,1,2,0,1,2,0,1,2,0,1,2,0,1,2,0,1,2,0,1,2,0,1,2,0,1,2,0,1,2,0,1,2,0,1,2,0,1,2,0,1,2,0,1,2,0,1,2,0,1,2,0,1,2,0,1,2,0,1,2,0,1,2,0,1,2,0,1,2,0,1,2,0,1,2,0,1,2,0,1,2,0,1,2,0,1,2,0,1,2,0,1,2,0,1,2,0,1,2,0,1,2,0,1,2,0,1,2,0,1,2,0,1,2,0,1,2,0,1,2,0,1,2,0,1,2,0,1,2,0,1,2,0,1,2,0,1,2,0,1,2,0,1,2,0,1,2,0,1,2,0,1,2,0,1,2,0,1,2,0,1,2,0,1,2,0,1,2,0,1,2,0,1,2,0,1,2,0,1,2,0,1,2,0,1,2,0,1,2,0,1,2,0,1,2,0,1,2,0,1,2,0,1,2,0,1,2,0,1,2,0,1,2,0,1,2,0,1,2,0,1,2,0,1,2,0,1,2,0,1,2,0,1,2,0,1,2,0,1,2,0,1,2,0,1,2,0,1,2,0,1,2,0,1,2,0,1,2,0,1,2,0,1,2,0,1,2,0,1,2,0,1,2,0,1,2,0,1,2,0,1,2,0,1,2,0,1,2,0,1,2,0,1,2,0,1,2,0,1,2,0,1,2,0,1,2,0,1,2,0,1,2,0,1,2,0,1,2,0,1,2,0,1,2,0,1,2,0,1,2,0,1,2,0,1,2,0,1,2,0,1,2,0,1,2,0,1,2,0,1,2,0,1,2,0,1,2,0,1,2,0,1,2,0,1,2,0,1,2,0,1,2,0,1,2,0,1,2,0,1,2,0,1,2,0,1,2,0,1,2,0,1,2,0,1,2,0,1,2,0,1,2,0,1,2,0,1,2,0,1,2,0,1,2,0,1,2,0,1,2,0,1,2,0,1,2,0,1,2,0,1,2,0,1,2,0,1,2,0,1,2,0,1,2,0,1,2,0,1,2,0,1,2,0,1,2,0,1,2,0,1,2,0,1,2,0,1,2,0,1,2,0,1,2,0,1,2,0,1,2,0,1,2,0,1,2,0,1,2,0,1,2,0,1,2,0,1,2,0,1,2,0,1,2,0,1,2,0,1,2,0,1,2,0,1,2,0,1,2,0,1,2,0,1,2,0,1,2,0,1,2,0,1,2,0,1,2,0,1,2,0,1,2,0,1,2,0,1,2,0,1,2,0,1,2,0,1,2,0,1,2,0,1,2,0,1,2,0,1,2,0,1,2,0,1,2,0,1,2,0,1,2,0,1,2,0,1,2,0,1,2,0,1,2,0,1,2,0,1,2,0,1,2,0,1,2,0,1,2,0,1,2,0,1,2,0,1,2,0,1,2,0,1,2,0,1,2,0,1,2,0,1,2,0,1,2,0,1,2,0,1,2,0,1,2,0,1,2,0,1,2,0,1,2,0,1,2,0,1,2,0,1,2,0,1,2,0,1,2,0,1,2,0,1,2,0,1,2,0,1,2,0,1,2,0,1,2,0,1,2,0,1,2,0,1,2,0,1,2,0,1,2,0,1,2,0,1,2,0,1,2,0,1,2,0,1,2,0,1,2,0,1,2,0,1,2,0,1,2,0,1,2,0,1,2,0,1,2,0,1,2,0,1,2,0,1,2,0,1,2,0,1,2,0,1,2,0,1,2,0,1,2,0,1,2,0,1,2,0,1,2,0,1,2,0,1,2,0,1,2,0,1,2,0,1,2,0,1,2,0,1,2,0,1,2,0,1,2,0,1,2,0,1,2,0,1,2,0,1,2,0,1,2,0,1,2,0,1,2,0,1,2,0,1,2,0,1,2,0,1,2,0,1,2,0,1,2,0,1,2,0,1,2,0,1,2,0,1,2,0,1,2,0,1,2,0,1,2,0,1,2,0,1,2,0,1,2,0,1,2,0,1,2,0,1,2,0,1,2,0,1,2,0,1,2,0,1,2,0,1,2,0,1,2,0,1,2,0,1,2,0,1,2],"trees":[{"base_weights":[3.099354E-2,-3.357778E-1,4.9235496E-1,-6.946572E-1,-1.403412E-1,7.893635E-2,6.587744E-1,-3.0054912E-2,-3.642631E-3,-3.1327042E-1,4.6077448E-1,-4.687843E-1,6.3253224E-1,7.1729916E-1,-4.3252343E-3,-1.8395508E-2,1.6441452E-3,3.4152795E-2,-4.7617606E-3,1.051138E-3,-2.4452297E-2,3.5424493E-2,-4.916591E-3,1.5718305E-2,3.26E-2],"categories":[],"categories_nodes":[],"categories_segments":[],"categories_sizes":[],"default_left":[0,0,0,0,0,0,0,0,0,0,0,0,0,0,0,0,0,0,0,0,0,0,0,0,0],"id":0,"left_children":[1,3,5,7,9,11,13,-1,-1,15,17,19,21,23,-1,-1,-1,-1,-1,-1,-1,-1,-1,-1,-1],"loss_changes":[9.440599E0,2.0860457E0,1.6461382E0,2.9865885E-1,2.3698049E0,2.7889876E0,8.6130095E-1,0E0,0E0,9.1366947E-1,1.2838843E0,3.4813225E-1,9.7183895E-1,1.9799614E-1,0E0,0E0,0E0,0E0,0E0,0E0,0E0,0E0,0E0,0E0,0E0],"parents":[2147483647,0,0,1,1,2,2,3,3,4,4,5,5,6,6,9,9,10,10,11,11,12,12,13,13],"right_children":[2,4,6,8,10,12,14,-1,-1,16,18,20,22,24,-1,-1,-1,-1,-1,-1,-1,-1,-1,-1,-1],"split_conditions":[6.805E-1,-2.919E-1,8.3333336E-2,-1.8421052E-1,5.319149E-1,0E0,1.3809524E0,-3.0054912E-2,-3.642631E-3,1.382E-1,3.84E-2,-2.5641026E-2,9.739E-1,5.826813E-1,-4.3252343E-3,-1.8395508E-2,1.6441452E-3,3.4152795E-2,-4.7617606E-3,1.051138E-3,-2.4452297E-2,3.5424493E-2,-4.916591E-3,1.5718305E-2,3.26E-2],"split_indices":[5,0,1,4,3,3,2,0,0,0,0,1,5,2,0,0,0,0,0,0,0,0,0,0,0],"split_type":[0,0,0,0,0,0,0,0,0,0,0,0,0,0,0,0,0,0,0,0,0,0,0,0,0],"sum_hessian":[5.381385E1,3.0131905E1,2.3681944E1,9.723075E0,2.040883E1,7.220105E0,1.646184E1,8.664126E0,1.0589488E0,1.6221169E1,4.1876607E0,3.7063205E0,3.5137844E0,1.5354756E1,1.1070827E0,1.1263364E1,4.9578056E0,2.2141654E0,1.9734954E0,1.0108147E0,2.6955059E0,2.5029697E0,1.0108147E0,4.7171354E0,1.0637621E1],"tree_param":{"num_deleted":"0","num_feature":"9","num_nodes":"25","size_leaf_vector":"1"}},{"base_weights":[1.4620617E-3,-3.8054553E-1,1.07333615E-1,-4.6487498E-1,3.0849662E-3,9.4006705E-1,-5.1412834E-3,-2.1311134E-2,-1.745348E-3,4.5787286E-2,9.773889E-3,2.6200658E-1,-1.5863034E-1,-8.620865E-3,3.1698436E-2,-1.0088114E-3,-2.0330831E-2],"categories":[],"categories_nodes":[],"categories_segments":[],"categories_sizes":[],"default_left":[0,0,0,0,0,0,0,0,0,0,0,0,0,0,0,0,0],"id":1,"left_children":[1,3,5,7,-1,9,11,-1,-1,-1,-1,13,15,-1,-1,-1,-1],"loss_changes":[1.549247E0,3.567102E-1,2.8130765E0,1.8161964E-1,0E0,2.289691E-1,1.1654737E0,0E0,0E0,0E0,0E0,2.7998147E0,8.282387E-1,0E0,0E0,0E0,0E0],"parents":[2147483647,0,0,1,1,2,2,3,3,5,5,6,6,11,11,12,12],"right_children":[2,4,6,8,-1,10,12,-1,-1,-1,-1,14,16,-1,-1,-1,-1],"split_conditions":[-1.57E-1,5.455178E-2,-1E-1,-3.3333334E-1,3.0849662E-3,5.576E-1,6.16E-1,-2.1311134E-2,-1.745348E-3,4.5787286E-2,9.773889E-3,3.0769232E-1,0E0,-8.620865E-3,3.1698436E-2,-1.0088114E-3,-2.0330831E-2],"split_indices":[1,8,1,2,0,5,5,0,0,0,0,2,3,0,0,0,0],"split_type":[0,0,0,0,0,0,0,0,0,0,0,0,0,0,0,0,0],"sum_hessian":[3.62963E1,7.313433E0,2.8982864E1,6.162245E0,1.1511885E0,2.573245E0,2.6409618E1,5.078773E0,1.0834715E0,1.4897734E0,1.0834715E0,9.3788E0,1.7030819E1,5.2480655E0,4.1307354E0,1.3103234E1,3.9275844E0],"tree_param":{"num_deleted":"0","num_feature":"9","num_nodes":"17","size_leaf_vector":"1"}},{"base_weights":[1.3907115E-2,5.0126684E-1,-2.991631E-1,5.9123117E-1,-1.0995137E-1,2.4986852E-2,-5.2079475E-1,6.8407416E-1,8.660032E-2,8.380795E-3,-1.6801413E-2,-1.7009753E-1,2.3147747E-2,-3.3774996E-1,-2.8428769E-2,7.7013588E-3,3.3856757E-2,-1.8375572E-2,2.159938E-2,2.159938E-2,-1.395114E-2,3.2664224E-4,-1.7759906E-2],"categories":[],"categories_nodes":[],"categories_segments":[],"categories_sizes":[],"default_left":[0,0,0,0,0,0,0,0,0,0,0,0,0,0,0,0,0,0,0,0,0,0,0],"id":2,"left_children":[1,3,5,7,9,11,13,15,17,-1,-1,19,-1,21,-1,-1,-1,-1,-1,-1,-1,-1,-1],"loss_changes":[7.9358454E0,1.1830506E0,2.2901392E0,7.784934E-1,4.2996463E-1,1.5918604E0,4.1599417E-1,1.0306034E0,1.2192894E0,0E0,0E0,1.5835327E0,0E0,4.268353E-1,0E0,0E0,0E0,0E0,0E0,0E0,0E0,0E0,0E0],"parents":[2147483647,0,0,1,1,2,2,3,3,4,4,5,5,6,6,7,7,8,8,11,11,13,13],"right_children":[2,4,6,8,10,12,14,16,18,-1,-1,20,-1,22,-1,-1,-1,-1,-1,-1,-1,-1,-1],"split_conditions":[-4.2986427E-2,6.805E-1,1.044E-1,-3.5555556E-1,2.351E-1,1.08E-2,3.7747797E-1,-1.5E0,-2.12E-1,8.380795E-3,-1.6801413E-2,-2.4000265E-1,2.3147747E-2,1.6239317E-1,-2.8428769E-2,7.7013588E-3,3.3856757E-2,-1.8375572E-2,2.159938E-2,2.159938E-2,-1.395114E-2,3.2664224E-4,-1.7759906E-2],"split_indices":[1,5,0,4,0,0,8,4,0,0,0,8,0,1,0,0,0,0,0,0,0,0,0],"split_type":[0,0,0,0,0,0,0,0,0,0,0,0,0,0,0,0,0,0,0,0,0,0,0],"sum_hessian":[5.0028942E1,1.9332579E1,3.0696363E1,1.6880642E1,2.4519367E0,1.2825516E1,1.7870848E1,1.3957179E1,2.923463E0,1.3674263E0,1.0845106E0,9.996358E0,2.8291578E0,1.0515037E1,7.3558106E0,4.0079737E0,9.949205E0,1.3202736E0,1.6031895E0,1.6031895E0,8.393168E0,2.6877E0,7.827337E0],"tree_param":{"num_deleted":"0","num_feature":"9","num_nodes":"23","size_leaf_vector":"1"}},{"base_weights":[6.830827E-2,-3.7568727E-1,3.3559477E-1,5.067564E-2,-5.4044425E-1,1.3498817E-1,5.44555E-1,-4.4597054E-1,5.382498E-1,-6.806852E-1,-8.915658E-2,3.2309002E-1,-3.0895436E-1,6.534323E-1,-1.1885692E-2,-2.1810377E-2,-3.5353398E-3,7.907809E-3,2.7788395E-2,-2.9983498E-2,1.0486165E-3,1.2949458E-2,-2.115949E-2,-4.424308E-4,3.0514292E-2,-2.511365E-2,6.7107165E-3,2.8717376E-2,-5.240128E-3],"categories":[],"categories_nodes":[],"categories_segments":[],"categories_sizes":[],"default_left":[0,0,0,0,0,0,0,0,0,0,0,0,0,0,0,0,0,0,0,0,0,0,0,0,0,0,0,0,0],"id":3,"left_children":[1,3,5,7,9,11,13,15,17,19,21,23,25,27,-1,-1,-1,-1,-1,-1,-1,-1,-1,-1,-1,-1,-1,-1,-1],"loss_changes":[6.7748704E0,1.5394526E0,1.4146278E0,1.9142282E0,9.2734575E-1,1.7233397E0,1.757442E0,9.2828214E-2,7.269502E-2,5.92422E-1,1.0523754E0,2.0869682E0,1.0626419E0,8.7413454E-1,0E0,0E0,0E0,0E0,0E0,0E0,0E0,0E0,0E0,0E0,0E0,0E0,0E0,0E0,0E0],"parents":[2147483647,0,0,1,1,2,2,3,3,4,4,5,5,6,6,7,7,8,8,9,9,10,10,11,11,12,12,13,13],"right_children":[2,4,6,8,10,12,14,16,18,20,22,24,26,28,-1,-1,-1,-1,-1,-1,-1,-1,-1,-1,-1,-1,-1,-1,-1],"split_conditions":[-4.2986427E-2,5.576E-1,1.9265233E-1,5.0847456E-2,1E0,7.727E-1,4.6140552E-1,-1E-1,-1.1610054E0,1.1205479E0,2.942613E-1,6.575E-1,1E0,7.235E-1,-1.1885692E-2,-2.1810377E-2,-3.5353398E-3,7.907809E-3,2.7788395E-2,-2.9983498E-2,1.0486165E-3,1.2949458E-2,-2.115949E-2,-4.424308E-4,3.0514292E-2,-2.511365E-2,6.7107165E-3,2.8717376E-2,-5.240128E-3],"split_indices":[1,6,1,3,7,5,1,1,4,3,3,5,7,6,0,0,0,0,0,0,0,0,0,0,0,0,0,0,0],"split_type":[0,0,0,0,0,0,0,0,0,0,0,0,0,0,0,0,0,0,0,0,0,0,0,0,0,0,0,0,0],"sum_hessian":[5.5025673E1,2.0525217E1,3.4500458E1,5.9137816E0,1.4611436E1,1.8441856E1,1.6058601E1,2.9719062E0,2.9418752E0,1.0759518E1,3.8519177E0,1.3144609E1,5.297246E0,1.4417328E1,1.6412724E0,1.9152745E0,1.0566318E0,1.6386666E0,1.3032085E0,9.7488985E0,1.0106196E0,2.1229453E0,1.7289724E0,8.0231695E0,5.12144E0,2.9841237E0,2.3131223E0,1.3400236E1,1.017092E0],"tree_param":{"num_deleted":"0","num_feature":"9","num_nodes":"29","size_leaf_vector":"1"}},{"base_weights":[-5.0841577E-2,3.2091495E-1,-1.3911861E-1,-2.1602494E-1,3.698442E-2,-9.222216E-4,-3.281953E-1,1.0233322E-2,-1.8537205E-2,6.9922835E-1,-1.8521564E-1,1.480123E-2,-4.6172914E-1,8.756774E-3,4.1148704E-2,3.9012854E-3,-1.9177284E-2,-2.2976564E-2,4.6967245E-3],"categories":[],"categories_nodes":[],"categories_segments":[],"categories_sizes":[],"default_left":[0,0,0,0,0,0,0,0,0,0,0,0,0,0,0,0,0,0,0],"id":4,"left_children":[1,3,5,7,-1,9,11,-1,-1,13,15,-1,17,-1,-1,-1,-1,-1,-1],"loss_changes":[1.3722596E0,2.8140943E0,8.721447E-1,7.1151584E-1,0E0,2.747954E0,1.4851447E0,0E0,0E0,4.7711658E-1,1.4489071E0,0E0,8.687289E-1,0E0,0E0,0E0,0E0,0E0,0E0],"parents":[2147483647,0,0,1,1,2,2,3,3,5,5,6,6,9,9,10,10,12,12],"right_children":[2,4,6,8,-1,10,12,-1,-1,14,16,-1,18,-1,-1,-1,-1,-1,-1],"split_conditions":[-2.805E-1,-9.264706E-1,0E0,-1.5E0,3.698442E-2,1.9444445E-1,-1.936E-1,1.0233322E-2,-1.8537205E-2,8.295E-1,-5.813953E-1,1.480123E-2,2.1052632E-1,8.756774E-3,4.1148704E-2,3.9012854E-3,-1.9177284E-2,-2.2976564E-2,4.6967245E-3],"split_indices":[0,4,3,4,0,4,0,0,0,5,3,0,4,0,0,0,0,0,0],"split_type":[0,0,0,0,0,0,0,0,0,0,0,0,0,0,0,0,0,0,0],"sum_hessian":[3.945439E1,7.0653076E0,3.2389084E1,4.079275E0,2.9860325E0,1.9292816E1,1.3096266E1,1.3914322E0,2.6878428E0,3.437871E0,1.5854945E1,1.8181902E0,1.1278076E1,2.0760112E0,1.3618599E0,8.425947E0,7.428998E0,9.447954E0,1.8301215E0],"tree_param":{"num_deleted":"0","num_feature":"9","num_nodes":"19","size_leaf_vector":"1"}},{"base_weights":[3.7981665E-3,-3.253246E-1,3.02314E-1,2.4564019E-1,-5.2359146E-1,7.3266125E-1,9.0129025E-2,-9.691249E-2,5.5695534E-1,-5.8074445E-1,-1.4665602E-1,3.9187156E-2,2.4498984E-1,3.6670968E-1,-3.925595E-1,-1.5874948E-2,1.6221905E-2,2.8605012E-2,1.1775361E-3,-1.1816972E-2,-2.5913784E-2,2.832826E-3,-1.6274363E-2,-1.7237406E-2,2.3090912E-2,2.4004217E-2,-5.1048063E-3,-2.5684396E-2,-1.1122058E-3],"categories":[],"categories_nodes":[],"categories_segments":[],"categories_sizes":[],"default_left":[0,0,0,0,0,0,0,0,0,0,0,0,0,0,0,0,0,0,0,0,0,0,0,0,0,0,0,0,0],"id":5,"left_children":[1,3,5,7,9,11,13,15,17,19,21,-1,23,25,27,-1,-1,-1,-1,-1,-1,-1,-1,-1,-1,-1,-1,-1,-1],"loss_changes":[5.8280134E0,3.3230786E0,2.7737482E0,9.022018E-1,3.7293768E-1,9.8025227E-1,3.076949E0,8.601008E-1,3.3899605E-1,1.5565729E-1,2.6295403E-1,0E0,1.3132042E0,1.7476373E0,7.5457144E-1,0E0,0E0,0E0,0E0,0E0,0E0,0E0,0E0,0E0,0E0,0E0,0E0,0E0,0E0],"parents":[2147483647,0,0,1,1,2,2,3,3,4,4,5,5,6,6,7,7,8,8,9,9,10,10,12,12,13,13,14,14],"right_children":[2,4,6,8,10,12,14,16,18,20,22,-1,24,26,28,-1,-1,-1,-1,-1,-1,-1,-1,-1,-1,-1,-1,-1,-1],"split_conditions":[5.376E-1,6.229236E-3,-1.57E-1,-1E-1,5.739E-1,-2.919E-1,7.727E-1,-3.374126E-1,4.808E-1,4.6E-2,5.455178E-2,3.9187156E-2,-1.5E0,1E0,9.57E-1,-1.5874948E-2,1.6221905E-2,2.8605012E-2,1.1775361E-3,-1.1816972E-2,-2.5913784E-2,2.832826E-3,-1.6274363E-2,-1.7237406E-2,2.3090912E-2,2.4004217E-2,-5.1048063E-3,-2.5684396E-2,-1.1122058E-3],"split_indices":[6,1,1,1,0,0,6,4,5,0,8,0,4,7,6,0,0,0,0,0,0,0,0,0,0,0,0,0,0],"split_type":[0,0,0,0,0,0,0,0,0,0,0,0,0,0,0,0,0,0,0,0,0,0,0,0,0,0,0,0,0],"sum_hessian":[5.7318153E1,2.7218798E1,3.0099354E1,6.953968E0,2.026483E1,9.129745E0,2.096961E1,3.6387758E0,3.3151925E0,1.712721E1,3.137619E0,5.3904543E0,3.7392902E0,1.3483715E1,7.485895E0,2.4101129E0,1.2286628E0,2.276858E0,1.0383344E0,4.2896624E0,1.2837548E1,2.105596E0,1.0320231E0,1.1345382E0,2.604752E0,9.013873E0,4.469841E0,3.993388E0,3.492507E0],"tree_param":{"num_deleted":"0","num_feature":"9","num_nodes":"29","size_leaf_vector":"1"}},{"base_weights":[2.7267946E-4,-4.9562395E-1,2.2406358E-1,-6.4950514E-1,5.4454654E-2,2.2563545E-2,4.653767E-1,-6.642278E-2,-2.98865E-2,2.0846447E-2,-1.4684136E-2,4.7611025E-1,-8.394137E-2,6.2763685E-1,-2.2161623E-2,1.1800891E-3,-5.121872E-3,-4.3756035E-3,3.1591397E-2,-1.1547455E-2,8.83801E-3,5.771213E-3,2.8489722E-2],"categories":[],"categories_nodes":[],"categories_segments":[],"categories_sizes":[],"default_left":[0,0,0,0,0,0,0,0,0,0,0,0,0,0,0,0,0,0,0,0,0,0,0],"id":6,"left_children":[1,3,5,7,9,11,13,15,-1,-1,-1,17,19,21,-1,-1,-1,-1,-1,-1,-1,-1,-1],"loss_changes":[6.196852E0,1.5051422E0,1.8603169E0,7.273717E-1,1.1196017E0,1.1035403E0,3.2352753E0,2.1837302E-2,0E0,0E0,0E0,8.829182E-1,1.2299412E0,5.3227854E-1,0E0,0E0,0E0,0E0,0E0,0E0,0E0,0E0,0E0],"parents":[2147483647,0,0,1,1,2,2,3,3,4,4,5,5,6,6,7,7,11,11,12,12,13,13],"right_children":[2,4,6,8,10,12,14,16,-1,-1,-1,18,20,22,-1,-1,-1,-1,-1,-1,-1,-1,-1],"split_conditions":[-8.109834E-2,6.805E-1,5.826813E-1,-9.798387E-1,-5.208333E-1,-2.5190222E-1,2.262931E0,-3.0989012E-1,-2.98865E-2,2.0846447E-2,-1.4684136E-2,-6.4285713E-1,2.151E-1,1.8421052E-1,-2.2161623E-2,1.1800891E-3,-5.121872E-3,-4.3756035E-3,3.1591397E-2,-1.1547455E-2,8.83801E-3,5.771213E-3,2.8489722E-2],"split_indices":[2,5,2,2,4,4,4,1,0,0,0,4,0,1,0,0,0,0,0,0,0,0,0],"split_type":[0,0,0,0,0,0,0,0,0,0,0,0,0,0,0,0,0,0,0,0,0,0,0],"sum_hessian":[5.3838326E1,1.636362E1,3.7474705E1,1.2645397E1,3.7182236E0,2.1017927E1,1.6456778E1,2.0551121E0,1.0590285E1,1.6524851E0,2.0657384E0,3.3370266E0,1.76809E1,1.4528587E1,1.92819E0,1.0077248E0,1.0473874E0,1.3913033E0,1.9457233E0,1.0609448E1,7.0714517E0,2.5672376E0,1.19613495E1],"tree_param":{"num_deleted":"0","num_feature":"9","num_nodes":"23","size_leaf_vector":"1"}},{"base_weights":[2.3226896E-2,1.2003627E-1,-4.2180276E-1,-2.8193685E-1,2.3586802E-1,-2.1184796E-2,2.3918748E-3,5.6756716E-3,-4.2847878E-1,8.906541E-1,1.09154135E-1,-2.020222E-2,-1.3462886E-3,4.5521326E-2,9.857159E-3,1.1255366E-2,-6.2039853E-3],"categories":[],"categories_nodes":[],"categories_segments":[],"categories_sizes":[],"default_left":[0,0,0,0,0,0,0,0,0,0,0,0,0,0,0,0,0],"id":7,"left_children":[1,3,5,7,9,-1,-1,-1,11,13,15,-1,-1,-1,-1,-1,-1],"loss_changes":[1.7237177E0,1.5878446E0,4.0344703E-1,5.4304814E-1,2.0524993E0,0E0,0E0,0E0,1.6496468E-1,3.6680126E-1,1.0835149E0,0E0,0E0,0E0,0E0,0E0,0E0],"parents":[2147483647,0,0,1,1,2,2,3,3,4,4,8,8,9,9,10,10],"right_children":[2,4,6,8,10,-1,-1,-1,12,14,16,-1,-1,-1,-1,-1,-1],"split_conditions":[9.3214506E-1,-1.6021505E-1,3.2142857E-1,-1.0697675E0,-3.011E-1,-2.1184796E-2,2.3918748E-3,5.6756716E-3,-3.197767E-1,-3.4146342E-1,0E0,-2.020222E-2,-1.3462886E-3,4.5521326E-2,9.857159E-3,1.1255366E-2,-6.2039853E-3],"split_indices":[8,1,1,2,0,0,0,0,2,4,3,0,0,0,0,0,0],"split_type":[0,0,0,0,0,0,0,0,0,0,0,0,0,0,0,0,0],"sum_hessian":[3.7833984E1,3.1674055E1,6.15993E0,6.7646255E0,2.490943E1,4.951674E0,1.2082565E0,1.7461479E0,5.0184774E0,3.061331E0,2.1848099E1,3.9694023E0,1.0490751E0,1.6581106E0,1.4032204E0,1.3187917E1,8.660181E0],"tree_param":{"num_deleted":"0","num_feature":"9","num_nodes":"17","size_leaf_vector":"1"}},{"base_weights":[4.3538317E-2,6.1587894E-1,-1.969438E-1,7.657839E-1,-5.425817E-2,5.8696266E-2,-4.6527323E-1,8.385195E-1,-2.2305538E-4,-1.9699564E-2,1.877742E-2,2.851334E-1,-5.23043E-1,-6.0827965E-1,-2.752734E-2,3.6443241E-3,3.6905136E-2,1.9863093E-2,-1.3446459E-2,1.2419826E-3,-2.5689878E-2,-2.7166374E-2,-2.4520175E-3,-1.0953154E-2,1.2304928E-2],"categories":[],"categories_nodes":[],"categories_segments":[],"categories_sizes":[],"default_left":[0,0,0,0,0,0,0,0,0,0,0,0,0,0,0,0,0,0,0,0,0,0,0,0,0],"id":8,"left_children":[1,3,5,7,9,11,13,15,-1,-1,-1,17,19,21,23,-1,-1,-1,-1,-1,-1,-1,-1,-1,-1],"loss_changes":[7.4806128E0,1.6550479E0,2.6618795E0,7.447982E-1,1.1193335E0,2.8570085E0,1.1633091E0,6.741791E-1,0E0,0E0,0E0,2.1958213E0,4.2366755E-1,5.0739765E-1,5.5387056E-1,0E0,0E0,0E0,0E0,0E0,0E0,0E0,0E0,0E0,0E0],"parents":[2147483647,0,0,1,1,2,2,3,3,4,4,5,5,6,6,7,7,11,11,12,12,13,13,14,14],"right_children":[2,4,6,8,10,12,14,16,-1,-1,-1,18,20,22,24,-1,-1,-1,-1,-1,-1,-1,-1,-1,-1],"split_conditions":[-1.712963E-1,6.805E-1,4.722222E-1,-5.860806E-2,7.727E-1,7.727E-1,5.76E-1,-1.25E0,-2.2305538E-4,-1.9699564E-2,1.877742E-2,1E0,4.224E-1,2.262931E0,1.5441231E-1,3.6443241E-3,3.6905136E-2,1.9863093E-2,-1.3446459E-2,1.2419826E-3,-2.5689878E-2,-2.7166374E-2,-2.4520175E-3,-1.0953154E-2,1.2304928E-2],"split_indices":[2,5,2,1,5,6,6,2,0,0,0,7,5,4,8,0,0,0,0,0,0,0,0,0,0],"split_type":[0,0,0,0,0,0,0,0,0,0,0,0,0,0,0,0,0,0,0,0,0,0,0,0,0],"sum_hessian":[5.2468777E1,1.5061594E1,3.7407185E1,1.2191674E1,2.869919E0,1.9556637E1,1.7850546E1,1.1061557E1,1.1301178E0,1.5948892E0,1.27503E0,1.444421E1,5.112427E0,1.31613245E1,4.689222E0,1.3296038E0,9.731953E0,1.0926393E1,3.5178175E0,1.0360608E0,4.0763664E0,1.1437547E1,1.7237775E0,2.8083432E0,1.8808788E0],"tree_param":{"num_deleted":"0","num_feature":"9","num_nodes":"25","size_leaf_vector":"1"}},{"base_weights":[-3.263821E-3,-6.657577E-1,1.5028043E-1,-2.8767075E-2,-3.2238099E-3,-8.293774E-3,4.476039E-1,-1.1694179E-1,5.6818056E-1,6.6495985E-1,-6.3856244E-2,-1.3374965E-2,7.7173817E-3,5.007966E-3,3.2592844E-2,-9.6775675E-3,3.3065453E-2,-1.2376667E-2,1.7177453E-2],"categories":[],"categories_nodes":[],"categories_segments":[],"categories_sizes":[],"default_left":[0,0,0,0,0,0,0,0,0,0,0,0,0,0,0,0,0,0,0],"id":9,"left_children":[1,3,5,-1,-1,7,9,11,13,15,17,-1,-1,-1,-1,-1,-1,-1,-1],"loss_changes":[5.967908E0,2.8707647E-1,2.2501688E0,0E0,0E0,2.0741928E0,1.886888E0,1.9377115E0,4.7204065E-1,1.9200158E0,8.4276384E-1,0E0,0E0,0E0,0E0,0E0,0E0,0E0,0E0],"parents":[2147483647,0,0,1,1,2,2,5,5,6,6,7,7,8,8,9,9,10,10],"right_children":[2,4,6,-1,-1,8,10,12,14,16,18,-1,-1,-1,-1,-1,-1,-1,-1],"split_conditions":[-2.872E-1,-2.9802954E-1,1.9512194E-1,-2.8767075E-2,-3.2238099E-3,4.1666666E-1,5.576E-1,1.444E-1,-3.1527093E-1,5.84E-2,-1.75E-1,-1.3374965E-2,7.7173817E-3,5.007966E-3,3.2592844E-2,-9.6775675E-3,3.3065453E-2,-1.2376667E-2,1.7177453E-2],"split_indices":[0,4,1,0,0,3,6,0,2,6,3,0,0,0,0,0,0,0,0],"split_type":[0,0,0,0,0,0,0,0,0,0,0,0,0,0,0,0,0,0,0],"sum_hessian":[5.668517E1,1.0038095E1,4.6647076E1,8.988518E0,1.0495778E0,3.1055872E1,1.5591202E1,2.6801702E1,4.254169E0,1.0730799E1,4.860403E0,1.5703735E1,1.1097968E1,2.0606802E0,2.193489E0,1.5484685E0,9.18233E0,3.4938974E0,1.3665056E0],"tree_param":{"num_deleted":"0","num_feature":"9","num_nodes":"19","size_leaf_vector":"1"}},{"base_weights":[-6.7920186E-2,1.4273435E-1,-2.8952292E-1,3.900803E-2,-1.8018337E-2,9.389784E-2,-5.333028E-1,3.1987843E-1,-1.5794046E-1,-1.80163E-2,3.7173384E-1,-2.2991372E-2,-4.28704E-3,-1.6409623E-2,2.9334223E-2,4.146771E-3,-1.824636E-2,3.3199545E-3,2.2966405E-2],"categories":[],"categories_nodes":[],"categories_segments":[],"categories_sizes":[],"default_left":[0,0,0,0,0,0,0,0,0,0,0,0,0,0,0,0,0,0,0],"id":10,"left_children":[1,3,5,-1,7,9,11,13,15,-1,17,-1,-1,-1,-1,-1,-1,-1,-1],"loss_changes":[1.9647224E0,2.9339118E0,1.9577714E0,0E0,9.605288E-1,1.4956788E0,1.6158867E-1,2.102181E0,1.1614184E0,0E0,3.2423353E-1,0E0,0E0,0E0,0E0,0E0,0E0,0E0,0E0],"parents":[2147483647,0,0,1,1,2,2,4,4,5,5,6,6,7,7,8,8,10,10],"right_children":[2,4,6,-1,8,10,12,14,16,-1,18,-1,-1,-1,-1,-1,-1,-1,-1],"split_conditions":[0E0,1.5757576E-1,-1.936E-1,3.900803E-2,5.96E-1,-5.039E-1,6.571429E-1,5.07326E-1,1.3473685E0,-1.80163E-2,8.295E-1,-2.2991372E-2,-4.28704E-3,-1.6409623E-2,2.9334223E-2,4.146771E-3,-1.824636E-2,3.3199545E-3,2.2966405E-2],"split_indices":[3,4,0,0,5,0,3,4,4,0,6,0,0,0,0,0,0,0,0],"split_type":[0,0,0,0,0,0,0,0,0,0,0,0,0,0,0,0,0,0,0],"sum_hessian":[4.020246E1,2.079281E1,1.940965E1,2.5453117E0,1.82475E1,7.783098E0,1.1626552E1,4.966887E0,1.3280612E1,2.4203303E0,5.3627677E0,1.0277249E1,1.3493026E0,1.7986512E0,3.1682358E0,7.422051E0,5.858561E0,2.7913241E0,2.5714438E0],"tree_param":{"num_deleted":"0","num_feature":"9","num_nodes":"19","size_leaf_vector":"1"}},{"base_weights":[1.9443532E-2,4.9681285E-1,-2.560705E-1,6.512597E-1,-7.294737E-2,-4.3968683E-1,1.263642E-1,-2.9267673E-3,7.088901E-1,-1.8187854E-2,1.8286072E-1,-5.0565135E-1,1.2361957E-1,4.5841408E-1,-3.6013955E-1,3.2010224E-2,1.4855322E-2,1.43737905E-2,-7.8793016E-4,-2.2342453E-2,-7.6220273E-3,2.587449E-2,-1.715572E-2,2.840373E-2,-1.7437879E-2,2.5177482E-3,-2.2889117E-2],"categories":[],"categories_nodes":[],"categories_segments":[],"categories_sizes":[],"default_left":[0,0,0,0,0,0,0,0,0,0,0,0,0,0,0,0,0,0,0,0,0,0,0,0,0,0,0],"id":11,"left_children":[1,3,5,7,9,11,13,-1,15,-1,17,19,21,23,25,-1,-1,-1,-1,-1,-1,-1,-1,-1,-1,-1,-1],"loss_changes":[7.000387E0,1.7602897E0,2.4286726E0,6.953778E-1,5.7632273E-1,9.1921425E-1,2.061477E0,0E0,1.4596415E-1,0E0,1.4067382E-1,2.4093008E-1,1.2084465E0,1.9790895E0,5.135728E-1,0E0,0E0,0E0,0E0,0E0,0E0,0E0,0E0,0E0,0E0,0E0,0E0],"parents":[2147483647,0,0,1,1,2,2,3,3,4,4,5,5,6,6,8,8,10,10,11,11,12,12,13,13,14,14],"right_children":[2,4,6,8,10,12,14,-1,16,-1,18,20,22,24,26,-1,-1,-1,-1,-1,-1,-1,-1,-1,-1,-1,-1],"split_conditions":[-4.6104927E-2,6.805E-1,5.96E-1,-5E-1,6.6E-2,3.75E-1,7.727E-1,-2.9267673E-3,-1.3492064E-1,-1.8187854E-2,5.0847456E-2,5.739E-1,5.459057E-2,2.8482002E-1,-2.427E-1,3.2010224E-2,1.4855322E-2,1.43737905E-2,-7.8793016E-4,-2.2342453E-2,-7.6220273E-3,2.587449E-2,-1.715572E-2,2.840373E-2,-1.7437879E-2,2.5177482E-3,-2.2889117E-2],"split_indices":[1,5,6,1,0,3,6,0,1,0,3,0,1,1,0,0,0,0,0,0,0,0,0,0,0,0,0],"split_type":[0,0,0,0,0,0,0,0,0,0,0,0,0,0,0,0,0,0,0,0,0,0,0,0,0,0,0],"sum_hessian":[5.1258717E1,1.8463945E1,3.2794773E1,1.4413726E1,4.05022E0,2.205562E1,1.0739152E1,1.0422857E0,1.337144E1,1.3131229E0,2.7370973E0,1.983522E1,2.2203999E0,6.4170837E0,4.322068E0,9.443844E0,3.9275959E0,1.0490572E0,1.6880401E0,1.6321892E1,3.5133288E0,1.0527016E0,1.1676984E0,5.1686296E0,1.2484541E0,1.6779796E0,2.6440883E0],"tree_param":{"num_deleted":"0","num_feature":"9","num_nodes":"27","size_leaf_vector":"1"}},{"base_weights":[-7.8421884E-4,-2.645498E-1,5.772148E-1,-6.535909E-1,-1.1257987E-1,2.6316664E-1,8.469309E-1,-5.095095E-3,-2.8267471E-2,-1.9724235E-1,3.6668408E-1,-2.9893464E-1,5.8646214E-1,3.915461E-2,6.791E-3,-1.3351E-2,4.0147686E-3,3.011465E-2,-2.9012098E-3,1.226722E-2,-2.3423728E-2,2.9528541E-2,-4.9814167E-3],"categories":[],"categories_nodes":[],"categories_segments":[],"categories_sizes":[],"default_left":[0,0,0,0,0,0,0,0,0,0,0,0,0,0,0,0,0,0,0,0,0,0,0],"id":12,"left_children":[1,3,5,7,9,11,13,-1,-1,15,17,19,21,-1,-1,-1,-1,-1,-1,-1,-1,-1,-1],"loss_changes":[8.806346E0,2.2712834E0,1.3102903E0,2.1544123E-1,1.278575E0,1.9587109E0,6.6348696E-1,0E0,0E0,1.0865431E0,8.7095386E-1,9.1667664E-1,8.0058193E-1,0E0,0E0,0E0,0E0,0E0,0E0,0E0,0E0,0E0,0E0],"parents":[2147483647,0,0,1,1,2,2,3,3,4,4,5,5,6,6,9,9,10,10,11,11,12,12],"right_children":[2,4,6,8,10,12,14,-1,-1,16,18,20,22,-1,-1,-1,-1,-1,-1,-1,-1,-1,-1],"split_conditions":[1.8518518E-1,-2.765E-1,3.303E-1,6.16E-1,5.0104165E-1,8.180488E-1,5.76E-1,-5.095095E-3,-2.8267471E-2,2.151E-1,-1.9491525E-1,1.984127E-1,4.456522E-1,3.915461E-2,6.791E-3,-1.3351E-2,4.0147686E-3,3.011465E-2,-2.9012098E-3,1.226722E-2,-2.3423728E-2,2.9528541E-2,-4.9814167E-3],"split_indices":[1,0,0,6,3,2,0,0,0,0,1,1,1,0,0,0,0,0,0,0,0,0,0],"split_type":[0,0,0,0,0,0,0,0,0,0,0,0,0,0,0,0,0,0,0,0,0,0,0],"sum_hessian":[5.5761497E1,3.866109E1,1.7100405E1,9.932704E0,2.8728388E1,8.8137245E0,8.286679E0,1.2219008E0,8.710803E0,2.491549E1,3.8128996E0,3.2457745E0,5.56795E0,6.5625114E0,1.7241681E0,1.6996595E1,7.918893E0,1.6489388E0,2.163961E0,1.0203228E0,2.2254517E0,4.557041E0,1.0109085E0],"tree_param":{"num_deleted":"0","num_feature":"9","num_nodes":"23","size_leaf_vector":"1"}},{"base_weights":[8.6784124E-2,-6.2287617E-2,3.3581734E-1,2.873795E-2,-4.046047E-1,9.404866E-1,2.7289644E-2,-2.9413912E-1,2.1749577E-1,-1.5837919E-3,-1.9433735E-2,1.12773115E-2,4.2180095E-2,-2.0588987E-1,4.3514416E-1,5.4657375E-3,-1.7411035E-2,3.06383E-2,-2.2917204E-3,2.2697581E-2,-2.1005139E-2,2.8131042E-2,2.7283314E-3],"categories":[],"categories_nodes":[],"categories_segments":[],"categories_sizes":[],"default_left":[0,0,0,0,0,0,0,0,0,0,0,0,0,0,0,0,0,0,0,0,0,0,0],"id":13,"left_children":[1,3,5,7,9,11,13,15,17,-1,-1,-1,-1,19,21,-1,-1,-1,-1,-1,-1,-1,-1],"loss_changes":[1.4639449E0,7.955707E-1,2.7189114E0,1.3321228E0,1.3943791E-1,7.3663235E-2,1.1139667E0,5.52059E-1,2.109549E0,0E0,0E0,0E0,0E0,2.1574342E0,3.691194E-1,0E0,0E0,0E0,0E0,0E0,0E0,0E0,0E0],"parents":[2147483647,0,0,1,1,2,2,3,3,4,4,5,5,6,6,7,7,8,8,13,13,14,14],"right_children":[2,4,6,8,10,12,14,16,18,-1,-1,-1,-1,20,22,-1,-1,-1,-1,-1,-1,-1,-1],"split_conditions":[3.3793104E-1,1.4228886E-1,5.96E-1,-1.57E-1,4.224E-1,-8.39599E-1,3.4672618E-1,-1.0697675E0,-9.090909E-2,-1.5837919E-3,-1.9433735E-2,1.12773115E-2,4.2180095E-2,1.5384616E-1,9.5238096E-1,5.4657375E-3,-1.7411035E-2,3.06383E-2,-2.2917204E-3,2.2697581E-2,-2.1005139E-2,2.8131042E-2,2.7283314E-3],"split_indices":[2,2,5,1,5,3,1,2,1,0,0,0,0,1,2,0,0,0,0,0,0,0,0],"split_type":[0,0,0,0,0,0,0,0,0,0,0,0,0,0,0,0,0,0,0,0,0,0,0],"sum_hessian":[3.7870674E1,2.4158958E1,1.3711716E1,1.980789E1,4.351069E0,3.9405353E0,9.77118E0,7.101769E0,1.27061205E1,1.0628798E0,3.288189E0,1.0940523E0,2.846483E0,6.5319223E0,3.2392578E0,1.7604125E0,5.3413563E0,3.6444929E0,9.061628E0,1.6813972E0,4.8505254E0,1.341998E0,1.8972597E0],"tree_param":{"num_deleted":"0","num_feature":"9","num_nodes":"23","size_leaf_vector":"1"}},{"base_weights":[-2.9567692E-2,5.562212E-1,-2.4218112E-1,-8.138393E-3,7.245315E-1,-1.7270891E-2,-5.075783E-1,2.6879868E-2,-2.1437785E-2,8.5381514E-1,-5.7100896E-3,-2.4142914E-2,1.03844345E-1,4.1951733E-3,-5.601655E-1,3.82335E-2,4.564543E-3,1.0959779E-2,-1.474346E-2,-2.4454657E-2,-6.0766344E-3],"categories":[],"categories_nodes":[],"categories_segments":[],"categories_sizes":[],"default_left":[0,0,0,0,0,0,0,0,0,0,0,0,0,0,0,0,0,0,0,0,0],"id":14,"left_children":[1,3,5,7,9,11,13,-1,-1,15,-1,-1,17,-1,19,-1,-1,-1,-1,-1,-1],"loss_changes":[6.4535275E0,1.3180432E0,2.254742E0,1.8543134E0,1.316206E0,1.5937424E0,6.178551E-1,0E0,0E0,6.012926E-1,0E0,0E0,1.6060226E0,0E0,2.4458838E-1,0E0,0E0,0E0,0E0,0E0,0E0],"parents":[2147483647,0,0,1,1,2,2,3,3,4,4,5,5,6,6,9,9,12,12,14,14],"right_children":[2,4,6,8,10,12,14,-1,-1,16,-1,-1,18,-1,20,-1,-1,-1,-1,-1,-1],"split_conditions":[-1.1013986E-1,-1.6331168E0,4.4565734E-1,-4E-1,-2.0851547E-1,-2.9965156E-1,-1.598E-1,2.6879868E-2,-2.1437785E-2,4.24E-2,-5.7100896E-3,-2.4142914E-2,7.727E-1,4.1951733E-3,2.262931E0,3.82335E-2,4.564543E-3,1.0959779E-2,-1.474346E-2,-2.4454657E-2,-6.0766344E-3],"split_indices":[1,4,2,0,2,2,0,0,0,0,0,0,6,0,4,0,0,0,0,0,0],"split_type":[0,0,0,0,0,0,0,0,0,0,0,0,0,0,0,0,0,0,0,0,0],"sum_hessian":[4.97346E1,1.2813886E1,3.6920715E1,3.1622438E0,9.651642E0,2.0561228E1,1.6359488E1,1.2623639E0,1.8998798E0,8.413059E0,1.2385826E0,2.8382406E0,1.7722986E1,1.2149673E0,1.514452E1,7.1365647E0,1.2764949E0,1.3338898E1,4.384089E0,1.3014737E1,2.1297827E0],"tree_param":{"num_deleted":"0","num_feature":"9","num_nodes":"21","size_leaf_vector":"1"}},{"base_weights":[-1.854544E-2,-2.3241962E-1,4.5760438E-1,-2.8325096E-1,2.7239395E-2,5.935399E-1,-2.0877314E-1,-4.662442E-1,-8.669799E-2,2.388551E-1,3.31489E-2,1.8121279E-3,-1.7163264E-2,1.110951E-2,-2.2097299E-2,-1.3009082E-2,8.38754E-3,-1.4273356E-2,3.3289924E-2],"categories":[],"categories_nodes":[],"categories_segments":[],"categories_sizes":[],"default_left":[0,0,0,0,0,0,0,0,0,0,0,0,0,0,0,0,0,0,0],"id":15,"left_children":[1,3,5,7,-1,9,11,13,15,17,-1,-1,-1,-1,-1,-1,-1,-1,-1],"loss_changes":[5.659783E0,1.9708419E0,1.6855369E0,1.2897077E0,0E0,1.0181537E0,2.2434445E-1,1.3668032E0,1.4155618E0,2.848215E0,0E0,0E0,0E0,0E0,0E0,0E0,0E0,0E0,0E0],"parents":[2147483647,0,0,1,1,2,2,3,3,5,5,6,6,7,7,8,8,9,9],"right_children":[2,4,6,8,-1,10,12,14,16,18,-1,-1,-1,-1,-1,-1,-1,-1,-1],"split_conditions":[1.9909503E-1,1.5144179E0,2.262931E0,5.576E-1,2.7239395E-2,1.35E0,1.3809524E0,-3.9285713E-1,6.306306E-2,-1.75E-1,3.31489E-2,1.8121279E-3,-1.7163264E-2,1.110951E-2,-2.2097299E-2,-1.3009082E-2,8.38754E-3,-1.4273356E-2,3.3289924E-2],"split_indices":[1,8,4,5,0,4,2,1,3,3,0,0,0,0,0,0,0,0,0],"split_type":[0,0,0,0,0,0,0,0,0,0,0,0,0,0,0,0,0,0,0],"sum_hessian":[5.353296E1,3.729354E1,1.6239418E1,3.5981075E1,1.3124659E0,1.3578765E1,2.6606526E0,1.7922709E1,1.8058369E1,6.2175446E0,7.3612204E0,1.6045405E0,1.056112E0,1.6300007E0,1.6292707E1,9.951881E0,8.106487E0,3.3017123E0,2.9158325E0],"tree_param":{"num_deleted":"0","num_feature":"9","num_nodes":"19","size_leaf_vector":"1"}},{"base_weights":[-2.9289091E-2,-1.8223752E-1,1.7232399E-1,6.4134814E-2,-4.0913904E-1,6.7585E-1,-7.667504E-2,-1.444772E-1,4.471367E-1,-5.5734128E-2,-2.2104029E-2,9.1842264E-1,-3.5785453E-3,-3.7313557E-1,2.9486853E-1,3.4603663E-4,-1.6627103E-2,3.4771223E-2,1.4831352E-3,-1.6373234E-2,1.5296909E-2,3.6425458E-3,4.687892E-2,5.236613E-3,-2.0754876E-2,3.648945E-2,-2.0299233E-3],"categories":[],"categories_nodes":[],"categories_segments":[],"categories_sizes":[],"default_left":[0,0,0,0,0,0,0,0,0,0,0,0,0,0,0,0,0,0,0,0,0,0,0,0,0,0,0],"id":16,"left_children":[1,3,5,7,9,11,13,15,17,19,-1,21,-1,23,25,-1,-1,-1,-1,-1,-1,-1,-1,-1,-1,-1,-1],"loss_changes":[1.1698265E0,1.2269452E0,2.112962E0,9.564305E-1,5.4295695E-1,1.1109061E0,1.4205692E0,3.3507133E-1,6.9135815E-1,8.350824E-1,0E0,7.9459167E-1,0E0,5.864788E-1,1.2921616E0,0E0,0E0,0E0,0E0,0E0,0E0,0E0,0E0,0E0,0E0,0E0,0E0],"parents":[2147483647,0,0,1,1,2,2,3,3,4,4,5,5,6,6,7,7,8,8,9,9,11,11,13,13,14,14],"right_children":[2,4,6,8,10,12,14,16,18,20,-1,22,-1,24,26,-1,-1,-1,-1,-1,-1,-1,-1,-1,-1,-1,-1],"split_conditions":[3.560606E-1,-6.08E-2,6.16E-1,-2.12E-1,-2.9965156E-1,1.0006254E0,3.429134E-1,-2.872E-1,-9.090909E-2,-1.2142857E-1,-2.2104029E-2,6.229236E-3,-3.5785453E-3,1.5384616E-1,7.8535354E-1,3.4603663E-4,-1.6627103E-2,3.4771223E-2,1.4831352E-3,-1.6373234E-2,1.5296909E-2,3.6425458E-3,4.687892E-2,5.236613E-3,-2.0754876E-2,3.648945E-2,-2.0299233E-3],"split_indices":[2,0,5,0,2,2,1,0,1,1,0,1,0,1,2,0,0,0,0,0,0,0,0,0,0,0,0],"split_type":[0,0,0,0,0,0,0,0,0,0,0,0,0,0,0,0,0,0,0,0,0,0,0,0,0,0,0],"sum_hessian":[3.5918137E1,2.0478653E1,1.5439486E1,1.0161989E1,1.0316663E1,4.541465E0,1.0898021E1,6.9818945E0,3.180095E0,3.3796637E0,6.936999E0,3.2965384E0,1.2449266E0,6.059091E0,4.83893E0,5.081068E0,1.9008266E0,1.0151405E0,2.1649544E0,1.9067155E0,1.4729482E0,1.092092E0,2.2044463E0,1.3817614E0,4.6773295E0,1.1483E0,3.69063E0],"tree_param":{"num_deleted":"0","num_feature":"9","num_nodes":"27","size_leaf_vector":"1"}},{"base_weights":[-3.296115E-2,2.795156E-1,-5.3829366E-1,4.336606E-1,-2.9958004E-1,-6.0118E-1,1.2927937E-2,3.7447598E-2,3.0707848E-1,-5.418073E-1,1.0037708E-2,-6.688911E-1,-3.3874366E-1,3.2563142E-2,7.203893E-3,-2.4417242E-2,-6.115456E-3,-2.8224198E-2,-6.0115447E-3,-6.0930126E-3,-1.9943688E-2],"categories":[],"categories_nodes":[],"categories_segments":[],"categories_sizes":[],"default_left":[0,0,0,0,0,0,0,0,0,0,0,0,0,0,0,0,0,0,0,0,0],"id":17,"left_children":[1,3,5,7,9,11,-1,-1,13,15,-1,17,19,-1,-1,-1,-1,-1,-1,-1,-1],"loss_changes":[8.440466E0,3.0844452E0,1.2995763E0,1.4013295E0,1.1427066E0,1.17498875E-1,0E0,0E0,1.3144937E0,5.5046797E-2,0E0,1.6748142E-1,1.0276395E-1,0E0,0E0,0E0,0E0,0E0,0E0,0E0,0E0],"parents":[2147483647,0,0,1,1,2,2,3,3,4,4,5,5,8,8,9,9,11,11,12,12],"right_children":[2,4,6,8,10,12,-1,-1,14,16,-1,18,20,-1,-1,-1,-1,-1,-1,-1,-1],"split_conditions":[3.5E-1,1E0,1.4417022E0,-9.3177027E-1,1.8425927E-1,5.76E-1,1.2927937E-2,3.7447598E-2,-4.027778E-1,-7.6719575E-2,1.0037708E-2,5.739E-1,7.8240967E-1,3.2563142E-2,7.203893E-3,-2.4417242E-2,-6.115456E-3,-2.8224198E-2,-6.0115447E-3,-6.0930126E-3,-1.9943688E-2],"split_indices":[2,7,2,8,3,6,0,0,3,3,0,0,2,0,0,0,0,0,0,0,0],"split_type":[0,0,0,0,0,0,0,0,0,0,0,0,0,0,0,0,0,0,0,0,0],"sum_hessian":[5.150006E1,3.2098526E1,1.9401535E1,2.5548983E1,6.5495443E0,1.8363237E1,1.0382974E0,3.8537462E0,2.1695236E1,4.559304E0,1.9902399E0,1.3365925E1,4.9973125E0,3.2615926E0,1.8433643E1,3.3913598E0,1.1679444E0,1.2145509E1,1.2204161E0,3.2084703E0,1.7888423E0],"tree_param":{"num_deleted":"0","num_feature":"9","num_nodes":"21","size_leaf_vector":"1"}},{"base_weights":[1.8127402E-2,-2.2098717E-1,5.002248E-1,-6.3725E-1,-5.496194E-2,5.701285E-1,-9.248075E-3,-4.479399E-3,-2.767425E-2,-2.25021E-2,5.9690002E-2,6.656712E-1,-2.8823901E-2,-2.4088038E-2,7.1539283E-3,2.9241396E-2,-2.3491876E-3,1.4717045E-2,-1.8060638E-2],"categories":[],"categories_nodes":[],"categories_segments":[],"categories_sizes":[],"default_left":[0,0,0,0,0,0,0,0,0,0,0,0,0,0,0,0,0,0,0],"id":18,"left_children":[1,3,5,7,9,11,-1,-1,-1,-1,13,15,17,-1,-1,-1,-1,-1,-1],"loss_changes":[6.536867E0,2.588254E0,1.0924897E0,2.3024273E-1,1.6764327E0,1.0171175E0,0E0,0E0,0E0,0E0,1.9952259E0,7.5701237E-1,7.2919506E-1,0E0,0E0,0E0,0E0,0E0,0E0],"parents":[2147483647,0,0,1,1,2,2,3,3,4,4,5,5,10,10,11,11,12,12],"right_children":[2,4,6,8,10,12,-1,-1,-1,-1,14,16,18,-1,-1,-1,-1,-1,-1],"split_conditions":[1.9318181E-1,-2.765E-1,4.6140552E-1,2.504E-1,-5.740741E-1,5.76E-1,-9.248075E-3,-4.479399E-3,-2.767425E-2,-2.25021E-2,-9.3177027E-1,7.235E-1,3.3333334E-1,-2.4088038E-2,7.1539283E-3,2.9241396E-2,-2.3491876E-3,1.4717045E-2,-1.8060638E-2],"split_indices":[1,0,1,5,3,0,0,0,0,0,8,6,1,0,0,0,0,0,0],"split_type":[0,0,0,0,0,0,0,0,0,0,0,0,0,0,0,0,0,0,0],"sum_hessian":[5.474703E1,3.6957943E1,1.7789085E1,9.728392E0,2.7229551E1,1.643855E1,1.3505347E0,1.203409E0,8.524982E0,4.2973924E0,2.293216E1,1.4081008E1,2.3575435E0,2.880116E0,2.0052044E1,1.2907214E1,1.1737938E0,1.2829227E0,1.0746208E0],"tree_param":{"num_deleted":"0","num_feature":"9","num_nodes":"19","size_leaf_vector":"1"}},{"base_weights":[1.1420848E-2,2.6180395E-1,-2.2149678E-1,-6.371184E-2,4.5357957E-1,1.9157869E-1,-5.253167E-1,3.4313705E-2,-3.3662432E-1,5.9683913E-1,-7.436761E-3,4.2096302E-1,-1.7002366E-2,-2.2717189E-2,-4.88371E-3,-2.6342715E-3,-1.927572E-2,3.3904273E-2,9.686399E-3,-1.29299555E-2,2.3772163E-2],"categories":[],"categories_nodes":[],"categories_segments":[],"categories_sizes":[],"default_left":[0,0,0,0,0,0,0,0,0,0,0,0,0,0,0,0,0,0,0,0,0],"id":19,"left_children":[1,3,5,7,9,11,13,-1,15,17,-1,19,-1,-1,-1,-1,-1,-1,-1,-1,-1],"loss_changes":[2.299671E0,1.2139322E0,2.667817E0,2.2792761E0,1.21662E0,1.5087913E0,1.3777351E-1,0E0,2.366916E-1,6.9282174E-1,0E0,1.1409327E0,0E0,0E0,0E0,0E0,0E0,0E0,0E0,0E0,0E0],"parents":[2147483647,0,0,1,1,2,2,3,3,4,4,5,5,6,6,8,8,9,9,11,11],"right_children":[2,4,6,8,10,12,14,-1,16,18,-1,20,-1,-1,-1,-1,-1,-1,-1,-1,-1],"split_conditions":[-1.4903846E-1,-7.19697E-1,-1.936E-1,5.84E-2,7.9010695E-1,9.739E-1,6.571429E-1,3.4313705E-2,1.859E-1,4.808E-1,-7.436761E-3,-1.2678572E0,-1.7002366E-2,-2.2717189E-2,-4.88371E-3,-2.6342715E-3,-1.927572E-2,3.3904273E-2,9.686399E-3,-1.29299555E-2,2.3772163E-2],"split_indices":[3,3,0,6,2,6,3,0,0,6,0,2,0,0,0,0,0,0,0,0,0],"split_type":[0,0,0,0,0,0,0,0,0,0,0,0,0,0,0,0,0,0,0,0,0],"sum_hessian":[3.7438526E1,1.7983019E1,1.9455507E1,6.9144173E0,1.1068602E1,8.401801E0,1.1053705E1,1.0901103E0,5.824307E0,9.097337E0,1.9712648E0,6.3550854E0,2.0467155E0,9.627765E0,1.4259408E0,2.5411603E0,3.2831466E0,4.5151906E0,4.582146E0,1.0372038E0,5.3178816E0],"tree_param":{"num_deleted":"0","num_feature":"9","num_nodes":"21","size_leaf_vector":"1"}},{"base_weights":[-3.9440647E-2,1.9580017E-1,-3.7157157E-1,7.9209614E-1,7.380138E-2,-1.7991584E-2,-4.322783E-1,1.0982777E-2,3.5652757E-2,3.1623834E-1,-1.6789235E-1,-1.8698914E-2,1.566973E-2,-2.540446E-2,-3.4056595E-1,-1.2193874E-3,2.1209506E-2,1.4967575E-2,-1.2136889E-2,4.2474834E-4,-2.0387167E-2],"categories":[],"categories_nodes":[],"categories_segments":[],"categories_sizes":[],"default_left":[0,0,0,0,0,0,0,0,0,0,0,0,0,0,0,0,0,0,0,0,0],"id":20,"left_children":[1,3,5,7,9,11,13,-1,-1,15,17,-1,-1,-1,19,-1,-1,-1,-1,-1,-1],"loss_changes":[4.297748E0,2.2920213E0,4.808836E-1,3.1791925E-2,1.6893836E0,9.896701E-1,1.443348E-1,0E0,0E0,1.0763083E0,1.1889095E0,0E0,0E0,0E0,9.263333E-1,0E0,0E0,0E0,0E0,0E0,0E0],"parents":[2147483647,0,0,1,1,2,2,3,3,4,4,5,5,6,6,9,9,10,10,14,14],"right_children":[2,4,6,8,10,12,14,-1,-1,16,18,-1,-1,-1,20,-1,-1,-1,-1,-1,-1],"split_conditions":[4.7987804E-1,-9.3177027E-1,-9.875E-1,-1.96E-1,5.192E-1,-1.08E0,7.8846157E-1,1.0982777E-2,3.5652757E-2,5.576E-1,-7.5E-1,-1.8698914E-2,1.566973E-2,-2.540446E-2,1.1499735E0,-1.2193874E-3,2.1209506E-2,1.4967575E-2,-1.2136889E-2,4.2474834E-4,-2.0387167E-2],"split_indices":[4,8,3,0,5,3,4,0,0,6,4,0,0,0,4,0,0,0,0,0,0],"split_type":[0,0,0,0,0,0,0,0,0,0,0,0,0,0,0,0,0,0,0,0,0],"sum_hessian":[5.3075954E1,3.1310154E1,2.17658E1,4.3849735E0,2.692518E1,3.3793721E0,1.8386429E1,1.3115233E0,3.07345E0,1.3287946E1,1.3637235E1,1.5443245E0,1.8350477E0,3.8800912E0,1.4506337E1,5.398618E0,7.889328E0,2.3753917E0,1.1261843E1,5.0196404E0,9.486696E0],"tree_param":{"num_deleted":"0","num_feature":"9","num_nodes":"21","size_leaf_vector":"1"}},{"base_weights":[-5.7419974E-2,-2.521869E-1,4.008142E-1,-3.9318386E-1,1.27866E-1,-9.536268E-3,4.8459193E-1,-1.3638186E-1,-5.299113E-1,-3.8616997E-1,4.964977E-1,2.1850081E-1,6.4728683E-1,-1.4221855E-2,1.3762748E-2,-2.7847238E-2,-9.247959E-3,6.1521115E-4,-1.9619465E-2,-8.411585E-3,3.1442076E-2,2.3708334E-2,-2.2008788E-2,2.9350506E-2,4.7641858E-3],"categories":[],"categories_nodes":[],"categories_segments":[],"categories_sizes":[],"default_left":[0,0,0,0,0,0,0,0,0,0,0,0,0,0,0,0,0,0,0,0,0,0,0,0,0],"id":21,"left_children":[1,3,5,7,9,-1,11,13,15,17,19,21,23,-1,-1,-1,-1,-1,-1,-1,-1,-1,-1,-1,-1],"loss_changes":[4.7272735E0,2.0323305E0,9.6415734E-1,8.836322E-1,2.2313347E0,0E0,4.7937727E-1,1.2601162E0,7.0419264E-1,2.1940506E-1,1.5376805E0,2.3255622E0,2.957945E-1,0E0,0E0,0E0,0E0,0E0,0E0,0E0,0E0,0E0,0E0,0E0,0E0],"parents":[2147483647,0,0,1,1,2,2,3,3,4,4,6,6,7,7,8,8,9,9,10,10,11,11,12,12],"right_children":[2,4,6,8,10,-1,12,14,16,18,20,22,24,-1,-1,-1,-1,-1,-1,-1,-1,-1,-1,-1,-1],"split_conditions":[5.826813E-1,1.444E-1,5.84E-2,5.96E-1,-3.8709676E-1,-9.536268E-3,7.8535354E-1,5.0104165E-1,6.16E-1,-7.979798E-1,-7.569819E-2,7.3125E-1,2E0,-1.4221855E-2,1.3762748E-2,-2.7847238E-2,-9.247959E-3,6.1521115E-4,-1.9619465E-2,-8.411585E-3,3.1442076E-2,2.3708334E-2,-2.2008788E-2,2.9350506E-2,4.7641858E-3],"split_indices":[2,0,6,6,3,0,2,3,5,3,8,2,4,0,0,0,0,0,0,0,0,0,0,0,0],"split_type":[0,0,0,0,0,0,0,0,0,0,0,0,0,0,0,0,0,0,0,0,0,0,0,0,0],"sum_hessian":[5.083476E1,3.5988106E1,1.4846656E1,2.6224463E1,9.763643E0,1.5064899E0,1.3340166E1,9.805398E0,1.6419064E1,4.057756E0,5.7058873E0,5.95069E0,7.389476E0,6.912248E0,2.8931499E0,9.693082E0,6.7259817E0,1.0125746E0,3.0451813E0,1.7377862E0,3.968101E0,4.1563683E0,1.7943218E0,6.0153923E0,1.3740835E0],"tree_param":{"num_deleted":"0","num_feature":"9","num_nodes":"25","size_leaf_vector":"1"}},{"base_weights":[1.1906473E-2,4.6348983E-1,-8.989264E-2,-1.0077987E-1,8.6336654E-1,-1.4680767E-1,4.539915E-1,-1.4565813E-2,6.8515185E-3,3.9396107E-2,9.751451E-3,6.945857E-2,-2.8768983E-1,2.065668E-3,2.6234953E-2,-7.0572067E-3,2.8836459E-2,-1.64472E-2,4.888676E-3],"categories":[],"categories_nodes":[],"categories_segments":[],"categories_sizes":[],"default_left":[0,0,0,0,0,0,0,0,0,0,0,0,0,0,0,0,0,0,0],"id":22,"left_children":[1,3,5,7,9,11,13,-1,-1,-1,-1,15,17,-1,-1,-1,-1,-1,-1],"loss_changes":[1.8771905E0,1.7809974E0,1.1011893E0,3.4964597E-1,9.862542E-2,9.6480346E-1,2.431438E-1,0E0,0E0,0E0,0E0,2.2156703E0,1.0106195E0,0E0,0E0,0E0,0E0,0E0,0E0],"parents":[2147483647,0,0,1,1,2,2,3,3,4,4,5,5,6,6,11,11,12,12],"right_children":[2,4,6,8,10,12,14,-1,-1,-1,-1,16,18,-1,-1,-1,-1,-1,-1],"split_conditions":[-2.805E-1,-1.6666667E-1,5.739E-1,7.727E-1,-7.3902025E-3,6.16E-1,7.4131274E-1,-1.4565813E-2,6.8515185E-3,3.9396107E-2,9.751451E-3,5.192E-1,7.727E-1,2.065668E-3,2.6234953E-2,-7.0572067E-3,2.8836459E-2,-1.64472E-2,4.888676E-3],"split_indices":[0,1,0,6,1,5,2,0,0,0,0,5,6,0,0,0,0,0,0],"split_type":[0,0,0,0,0,0,0,0,0,0,0,0,0,0,0,0,0,0,0],"sum_hessian":[3.89281E1,6.5075345E0,3.2420567E1,3.0091987E0,3.4983358E0,3.001021E1,2.4103582E0,1.3570853E0,1.6521134E0,2.431706E0,1.0666298E0,1.2037929E1,1.797228E1,1.2249146E0,1.1854435E0,9.268673E0,2.7692554E0,1.3809015E1,4.163266E0],"tree_param":{"num_deleted":"0","num_feature":"9","num_nodes":"19","size_leaf_vector":"1"}},{"base_weights":[-1.766346E-2,3.1386417E-1,-4.4486246E-1,4.282496E-1,-7.0448175E-2,-4.9290827E-1,1.2624279E-2,-1.55227315E-2,5.1602745E-1,-4.881625E-1,4.4586435E-1,-2.1039659E-1,-5.947128E-1,2.2090657E-2,-2.2133065E-2,-1.6425751E-2,2.3502855E-2,-2.3323992E-2,-2.7372718E-3,1.19689066E-4,2.9119346E-2,-1.8336413E-2,2.6740087E-2,-2.6003057E-2,-1.0423353E-2],"categories":[],"categories_nodes":[],"categories_segments":[],"categories_sizes":[],"default_left":[0,0,0,0,0,0,0,0,0,0,0,0,0,0,0,0,0,0,0,0,0,0,0,0,0],"id":23,"left_children":[1,3,5,7,9,11,-1,13,15,17,19,21,23,-1,-1,-1,-1,-1,-1,-1,-1,-1,-1,-1,-1],"loss_changes":[7.829039E0,1.3997707E0,1.0374722E0,9.487705E-1,1.9440783E0,5.390544E-1,0E0,1.8198527E0,1.5799608E0,1.5544522E-1,5.104094E-1,1.9772084E0,1.3450241E-1,0E0,0E0,0E0,0E0,0E0,0E0,0E0,0E0,0E0,0E0,0E0,0E0],"parents":[2147483647,0,0,1,1,2,2,3,3,4,4,5,5,7,7,8,8,9,9,10,10,11,11,12,12],"right_children":[2,4,6,8,10,12,-1,14,16,18,20,22,24,-1,-1,-1,-1,-1,-1,-1,-1,-1,-1,-1,-1],"split_conditions":[2.4305555E-1,7.035E-1,1.4417022E0,-1.5E0,8.833E-1,4.722222E-1,1.2624279E-2,-2.919E-1,1.536E-1,7.727E-1,-2.5641026E-2,4E-1,9.57E-1,2.2090657E-2,-2.2133065E-2,-1.6425751E-2,2.3502855E-2,-2.3323992E-2,-2.7372718E-3,1.19689066E-4,2.9119346E-2,-1.8336413E-2,2.6740087E-2,-2.6003057E-2,-1.0423353E-2],"split_indices":[2,5,2,4,5,2,0,0,5,5,1,2,5,0,0,0,0,0,0,0,0,0,0,0,0],"split_type":[0,0,0,0,0,0,0,0,0,0,0,0,0,0,0,0,0,0,0,0,0,0,0,0,0],"sum_hessian":[5.3292927E1,3.0155813E1,2.3137112E1,2.3150923E1,7.004891E0,2.2093122E1,1.043988E0,3.9589748E0,1.9191948E1,3.9023106E0,3.1025803E0,6.6647754E0,1.5428348E1,1.9127197E0,2.046255E0,1.0358152E0,1.8156134E1,2.8650515E0,1.0372591E0,1.6005836E0,1.5019968E0,5.571108E0,1.0936675E0,1.2424139E1,3.0042088E0],"tree_param":{"num_deleted":"0","num_feature":"9","num_nodes":"25","size_leaf_vector":"1"}},{"base_weights":[-3.136394E-2,-3.4482998E-1,2.3908654E-1,-9.676206E-2,-6.263076E-1,4.6861124E-1,3.5547223E-2,4.3698376E-1,-2.3747651E-1,-2.763331E-2,1.5453252E-3,3.107368E-2,2.2190253E-1,-1.8329376E-1,2.834359E-1,-2.9127933E-3,2.7210504E-2,1.9613117E-2,-1.4979743E-2,-7.231504E-3,2.3476439E-2,-2.3014883E-2,1.1622463E-3,2.1117067E-2,-3.8647733E-3],"categories":[],"categories_nodes":[],"categories_segments":[],"categories_sizes":[],"default_left":[0,0,0,0,0,0,0,0,0,0,0,0,0,0,0,0,0,0,0,0,0,0,0,0,0],"id":24,"left_children":[1,3,5,7,9,11,13,15,17,-1,-1,-1,19,21,23,-1,-1,-1,-1,-1,-1,-1,-1,-1,-1],"loss_changes":[4.8226914E0,1.776303E0,1.4132286E0,1.2428372E0,5.4760075E-1,9.15282E-1,9.906608E-1,4.8563755E-1,1.4450922E0,0E0,0E0,0E0,1.4795872E0,8.3245564E-1,8.414067E-1,0E0,0E0,0E0,0E0,0E0,0E0,0E0,0E0,0E0,0E0],"parents":[2147483647,0,0,1,1,2,2,3,3,4,4,5,5,6,6,7,7,8,8,12,12,13,13,14,14],"right_children":[2,4,6,8,10,12,14,16,18,-1,-1,-1,20,22,24,-1,-1,-1,-1,-1,-1,-1,-1,-1,-1],"split_conditions":[6.16E-1,5.76E-1,5.192E-1,-9.264706E-1,8.8125E-1,-7.19697E-1,0E0,-1.6785715E0,-1.459E-1,-2.763331E-2,1.5453252E-3,3.107368E-2,-3.5042736E-1,2.139423E-1,1.8425927E-1,-2.9127933E-3,2.7210504E-2,1.9613117E-2,-1.4979743E-2,-7.231504E-3,2.3476439E-2,-2.3014883E-2,1.1622463E-3,2.1117067E-2,-3.8647733E-3],"split_indices":[5,6,6,4,3,3,3,4,0,0,0,0,3,2,3,0,0,0,0,0,0,0,0,0,0],"split_type":[0,0,0,0,0,0,0,0,0,0,0,0,0,0,0,0,0,0,0,0,0,0,0,0,0],"sum_hessian":[5.491428E1,2.5307068E1,2.9607214E1,1.4166134E1,1.1140933E1,1.3303253E1,1.630396E1,2.5162497E0,1.1649885E1,1.0119964E1,1.0209695E0,4.9589105E0,8.344343E0,8.797731E0,7.5062294E0,1.039208E0,1.4770415E0,1.4372009E0,1.0212684E1,4.20735E0,4.1369934E0,2.4902465E0,6.3074846E0,4.3310027E0,3.1752267E0],"tree_param":{"num_deleted":"0","num_feature":"9","num_nodes":"25","size_leaf_vector":"1"}},{"base_weights":[6.0232934E-2,-2.6812807E-1,1.3498043E-1,3.1543234E-3,-4.055387E-1,3.6301877E-2,3.1683777E-2,-1.9441407E-2,-1.1288666E-3,7.132395E-1,-6.346223E-2,-1.1890378E-3,4.0629182E-2,-1.5239052E-2,7.4211154E-3],"categories":[],"categories_nodes":[],"categories_segments":[],"categories_sizes":[],"default_left":[0,0,0,0,0,0,0,0,0,0,0,0,0,0,0],"id":25,"left_children":[1,3,5,-1,7,-1,9,-1,-1,11,13,-1,-1,-1,-1],"loss_changes":[9.940361E-1,3.92973E-1,2.5611978E0,0E0,1.5595329E-1,0E0,1.9688126E0,0E0,0E0,8.6519027E-1,2.2010818E0,0E0,0E0,0E0,0E0],"parents":[2147483647,0,0,1,1,2,2,4,4,6,6,9,9,10,10],"right_children":[2,4,6,-1,8,-1,10,-1,-1,12,14,-1,-1,-1,-1],"split_conditions":[-1.6021505E-1,-1.0697675E0,-2.805E-1,3.1543234E-3,6.785714E-1,3.6301877E-2,-7.5675674E-2,-1.9441407E-2,-1.1288666E-3,-1.1013986E-1,3.75E-1,-1.1890378E-3,4.0629182E-2,-1.5239052E-2,7.4211154E-3],"split_indices":[1,2,0,0,3,0,1,0,0,1,2,0,0,0,0],"split_type":[0,0,0,0,0,0,0,0,0,0,0,0,0,0,0],"sum_hessian":[3.8025337E1,6.5712276E0,3.1454107E1,1.9849616E0,4.5862656E0,2.7913647E0,2.8662743E1,3.5423985E0,1.0438673E0,2.715395E0,2.5947348E1,1.0465716E0,1.6688234E0,1.1171404E1,1.4775945E1],"tree_param":{"num_deleted":"0","num_feature":"9","num_nodes":"15","size_leaf_vector":"1"}},{"base_weights":[5.453589E-3,2.7220222E-1,-3.9860204E-1,-6.283897E-2,3.866595E-1,1.6386146E-2,-5.050736E-1,1.7706683E-1,-4.0904006E-1,5.729333E-1,-3.5247665E-3,-5.793698E-1,-1.7978863E-1,1.8143265E-2,-5.6072185E-3,-3.4006392E-3,-2.0355633E-2,2.8664466E-2,5.1837694E-3,-2.112416E-2,9.578398E-3,-2.424949E-2,-5.716411E-3,1.0594853E-2,-2.0472595E-2],"categories":[],"categories_nodes":[],"categories_segments":[],"categories_sizes":[],"default_left":[0,0,0,0,0,0,0,0,0,0,0,0,0,0,0,0,0,0,0,0,0,0,0,0,0],"id":26,"left_children":[1,3,5,7,9,-1,11,13,15,17,19,21,23,-1,-1,-1,-1,-1,-1,-1,-1,-1,-1,-1,-1],"loss_changes":[5.7106004E0,1.247674E0,2.0205E0,8.1856E-1,1.7404437E0,0E0,3.566928E-1,5.902996E-1,8.548105E-2,9.387698E-1,1.2383088E0,9.012556E-2,8.7311006E-1,0E0,0E0,0E0,0E0,0E0,0E0,0E0,0E0,0E0,0E0,0E0,0E0],"parents":[2147483647,0,0,1,1,2,2,3,3,4,4,6,6,7,7,8,8,9,9,10,10,11,11,12,12],"right_children":[2,4,6,8,10,-1,12,14,16,18,20,22,24,-1,-1,-1,-1,-1,-1,-1,-1,-1,-1,-1,-1],"split_conditions":[1.444E-1,5.576E-1,-1.1013986E-1,6.229236E-3,1E0,1.6386146E-2,9.739E-1,5.0104165E-1,-7.170213E-1,8.295E-1,-2.2916667E-1,4.6E-1,1.7849462E-1,1.8143265E-2,-5.6072185E-3,-3.4006392E-3,-2.0355633E-2,2.8664466E-2,5.1837694E-3,-2.112416E-2,9.578398E-3,-2.424949E-2,-5.716411E-3,1.0594853E-2,-2.0472595E-2],"split_indices":[0,6,1,1,7,0,5,3,3,6,3,1,1,0,0,0,0,0,0,0,0,0,0,0,0],"split_type":[0,0,0,0,0,0,0,0,0,0,0,0,0,0,0,0,0,0,0,0,0,0,0,0,0],"sum_hessian":[5.0976562E1,3.090204E1,2.0074522E1,7.9835253E0,2.2918514E1,2.0051703E0,1.8069351E1,5.004274E0,2.9792514E0,1.5195719E1,7.722796E0,1.4073747E1,3.9956045E0,2.4441743E0,2.5600994E0,1.1379472E0,1.8413041E0,1.1010888E1,4.1848307E0,2.0733154E0,5.649481E0,1.2891203E1,1.1825439E0,1.7945478E0,2.2010567E0],"tree_param":{"num_deleted":"0","num_feature":"9","num_nodes":"25","size_leaf_vector":"1"}},{"base_weights":[4.506761E-2,-3.2973555E-1,3.3800068E-1,-6.6852175E-2,-2.720586E-2,1.0714601E-1,6.4903647E-1,4.8487204E-1,-2.3150067E-1,3.1987026E-1,-1.375989E-1,3.0213496E-2,1.5759173E-1,-2.89871E-3,2.877406E-2,-2.0454912E-2,5.907919E-3,2.0088177E-2,-7.080709E-4,-1.6348694E-2,1.3757118E-2,2.601162E-2,-1.87152E-2],"categories":[],"categories_nodes":[],"categories_segments":[],"categories_sizes":[],"default_left":[0,0,0,0,0,0,0,0,0,0,0,0,0,0,0,0,0,0,0,0,0,0,0],"id":27,"left_children":[1,3,5,7,-1,9,11,13,15,17,19,-1,21,-1,-1,-1,-1,-1,-1,-1,-1,-1,-1],"loss_changes":[6.1565537E0,2.2261925E0,2.1850286E0,1.4929358E0,0E0,1.0446769E0,5.69438E-1,5.5088085E-1,1.3896561E0,6.6031563E-1,1.3986406E0,0E0,1.4159184E0,0E0,0E0,0E0,0E0,0E0,0E0,0E0,0E0,0E0,0E0],"parents":[2147483647,0,0,1,1,2,2,3,3,5,5,6,6,7,7,8,8,9,9,10,10,12,12],"right_children":[2,4,6,8,-1,10,12,14,16,18,20,-1,22,-1,-1,-1,-1,-1,-1,-1,-1,-1,-1],"split_conditions":[6.16E-1,5.96E-1,6.105675E-1,-9.264706E-1,-2.720586E-2,7.727E-1,7.235E-1,-1.6785715E0,4.224E-1,8.461539E-2,1E0,3.0213496E-2,5.455178E-2,-2.89871E-3,2.877406E-2,-2.0454912E-2,5.907919E-3,2.0088177E-2,-7.080709E-4,-1.6348694E-2,1.3757118E-2,2.601162E-2,-1.87152E-2],"split_indices":[5,6,2,4,0,5,6,4,6,4,7,0,8,0,0,0,0,0,0,0,0,0,0],"split_type":[0,0,0,0,0,0,0,0,0,0,0,0,0,0,0,0,0,0,0,0,0,0,0],"sum_hessian":[5.405948E1,2.3660551E1,3.0398928E1,1.4199021E1,9.461529E0,1.822017E1,1.2178758E1,2.8164444E0,1.1382577E1,9.583528E0,8.6366415E0,9.571451E0,2.6073065E0,1.0386336E0,1.7778108E0,6.348459E0,5.0341187E0,5.9058704E0,3.6776576E0,5.622282E0,3.0143588E0,1.4362547E0,1.1710516E0],"tree_param":{"num_deleted":"0","num_feature":"9","num_nodes":"23","size_leaf_vector":"1"}},{"base_weights":[-9.3216315E-2,-4.8285034E-1,1.6660478E-2,-3.404669E-3,-2.1523027E-2,5.6292015E-1,-7.4881956E-2,6.0371106E-4,3.8044978E-2,-1.2198545E-1,1.6522255E-2,-1.094742E-3,-1.67666E-2],"categories":[],"categories_nodes":[],"categories_segments":[],"categories_sizes":[],"default_left":[0,0,0,0,0,0,0,0,0,0,0,0,0],"id":28,"left_children":[1,3,5,-1,-1,7,9,-1,-1,11,-1,-1,-1],"loss_changes":[1.6854255E0,1.4423776E-1,1.6187692E0,0E0,0E0,9.7299016E-1,6.913062E-1,0E0,0E0,7.253083E-1,0E0,0E0,0E0],"parents":[2147483647,0,0,1,1,2,2,5,5,6,6,9,9],"right_children":[2,4,6,-1,-1,8,10,-1,-1,12,-1,-1,-1],"split_conditions":[-1.6021505E-1,-1.25E0,-2.3863636E-1,-3.404669E-3,-2.1523027E-2,-3.6923078E-1,5.76E-1,6.0371106E-4,3.8044978E-2,8.180488E-1,1.6522255E-2,-1.094742E-3,-1.67666E-2],"split_indices":[1,2,2,0,0,2,0,0,0,2,0,0,0],"split_type":[0,0,0,0,0,0,0,0,0,0,0,0,0],"sum_hessian":[3.8180405E1,7.65182E0,3.0528585E1,1.2427536E0,6.4090667E0,3.6426396E0,2.6885944E1,1.9415854E0,1.7010541E0,2.5202957E1,1.682988E0,1.9944927E1,5.25803E0],"tree_param":{"num_deleted":"0","num_feature":"9","num_nodes":"13","size_leaf_vector":"1"}},{"base_weights":[-1.4353185E-2,2.087018E-1,-5.156215E-1,4.8733672E-1,7.861581E-2,-5.878523E-1,1.3628736E-2,3.2854557E-2,3.30956E-2,2.2608595E-1,-3.973647E-1,-4.493026E-3,-6.144976E-1,-2.207973E-2,1.7534198E-2,1.6277287E-2,-9.854348E-3,-2.3866052E-2,-3.301642E-3,-2.577283E-2,-5.2746874E-3],"categories":[],"categories_nodes":[],"categories_segments":[],"categories_sizes":[],"default_left":[0,0,0,0,0,0,0,0,0,0,0,0,0,0,0,0,0,0,0,0,0],"id":29,"left_children":[1,3,5,7,9,11,-1,-1,13,15,17,-1,19,-1,-1,-1,-1,-1,-1,-1,-1],"loss_changes":[6.4529185E0,1.4110458E0,1.299098E0,1.8746295E0,2.0869586E0,1.4320183E-1,0E0,0E0,1.7484324E0,2.010624E0,3.9574254E-1,0E0,1.4010906E-1,0E0,0E0,0E0,0E0,0E0,0E0,0E0,0E0],"parents":[2147483647,0,0,1,1,2,2,3,3,4,4,5,5,8,8,9,9,10,10,12,12],"right_children":[2,4,6,8,10,12,-1,-1,14,16,18,-1,20,-1,-1,-1,-1,-1,-1,-1,-1],"split_conditions":[4.722222E-1,-1.6021505E-1,1.4027778E0,-2.919E-1,7.727E-1,1.352E-1,1.3628736E-2,3.2854557E-2,-9.798387E-1,2.535E-1,9.57E-1,-4.493026E-3,8.187E-1,-2.207973E-2,1.7534198E-2,1.6277287E-2,-9.854348E-3,-2.3866052E-2,-3.301642E-3,-2.577283E-2,-5.2746874E-3],"split_indices":[2,1,2,0,6,6,0,0,2,0,6,0,6,0,0,0,0,0,0,0,0],"split_type":[0,0,0,0,0,0,0,0,0,0,0,0,0,0,0,0,0,0,0,0,0],"sum_hessian":[5.575061E1,3.8986156E1,1.6764456E1,1.1534282E1,2.7451874E1,1.5749537E1,1.014918E0,6.180918E0,5.353364E0,2.1359272E1,6.0926027E0,1.1124109E0,1.4637127E1,2.0424805E0,3.3108833E0,1.5546805E1,5.8124666E0,3.1827178E0,2.9098852E0,1.346977E1,1.1673564E0],"tree_param":{"num_deleted":"0","num_feature":"9","num_nodes":"21","size_leaf_vector":"1"}},{"base_weights":[5.00579E-3,-3.989075E-1,2.1518144E-1,-2.6272519E-2,-1.5178244E-1,2.9670533E-3,4.9176875E-1,1.9214177E-1,-3.439282E-1,-2.7869388E-1,1.8402152E-1,-1.0229159E-2,5.9255314E-1,1.8390529E-2,-4.4021807E-3,-1.7793177E-2,2.3212591E-3,-1.9232068E-2,6.080866E-3,-6.8454174E-3,1.3824304E-2,2.7537819E-2,5.413227E-4],"categories":[],"categories_nodes":[],"categories_segments":[],"categories_sizes":[],"default_left":[0,0,0,0,0,0,0,0,0,0,0,0,0,0,0,0,0,0,0,0,0,0,0],"id":30,"left_children":[1,3,5,-1,7,9,11,13,15,17,19,-1,21,-1,-1,-1,-1,-1,-1,-1,-1,-1,-1],"loss_changes":[4.6544657E0,1.0965745E0,2.1143515E0,0E0,7.854408E-1,1.1427631E0,1.3300791E0,4.180377E-1,3.236025E-1,8.367467E-1,8.413911E-1,0E0,7.728262E-1,0E0,0E0,0E0,0E0,0E0,0E0,0E0,0E0,0E0,0E0],"parents":[2147483647,0,0,1,1,2,2,4,4,5,5,6,6,7,7,8,8,9,9,10,10,12,12],"right_children":[2,4,6,-1,8,10,12,14,16,18,20,-1,22,-1,-1,-1,-1,-1,-1,-1,-1,-1,-1],"split_conditions":[-7.5E-2,-1.76E-1,2.535E-1,-2.6272519E-2,-1.8287373E-1,-3.768116E-1,5.84E-2,-6.7901236E-1,1E0,1E0,-2.304E-1,-1.0229159E-2,5.739E-1,1.8390529E-2,-4.4021807E-3,-1.7793177E-2,2.3212591E-3,-1.9232068E-2,6.080866E-3,-6.8454174E-3,1.3824304E-2,2.7537819E-2,5.413227E-4],"split_indices":[2,0,0,0,1,3,6,2,7,7,0,0,0,0,0,0,0,0,0,0,0,0,0],"split_type":[0,0,0,0,0,0,0,0,0,0,0,0,0,0,0,0,0,0,0,0,0,0,0],"sum_hessian":[5.2816475E1,1.776942E1,3.5047054E1,7.883844E0,9.885577E0,2.0403214E1,1.4643843E1,3.543335E0,6.3422422E0,7.7724953E0,1.2630717E1,1.5571777E0,1.3086665E1,1.6026455E0,1.9406896E0,4.984391E0,1.3578507E0,5.2110085E0,2.5614865E0,3.9311585E0,8.699559E0,1.1065163E1,2.021502E0],"tree_param":{"num_deleted":"0","num_feature":"9","num_nodes":"23","size_leaf_vector":"1"}},{"base_weights":[1.3857203E-3,-3.8239962E-1,1.0809274E-1,3.227061E-3,-2.1105422E-2,7.7217764E-1,-3.5621559E-3,4.435824E-2,1.2673399E-2,1.4118546E-1,-3.2709178E-1,-5.4455176E-3,1.3456396E-2,-6.8379217E-4,-2.0560268E-2],"categories":[],"categories_nodes":[],"categories_segments":[],"categories_sizes":[],"default_left":[0,0,0,0,0,0,0,0,0,0,0,0,0,0,0],"id":31,"left_children":[1,3,5,-1,-1,7,9,-1,-1,11,13,-1,-1,-1,-1],"loss_changes":[1.6644065E0,6.3727665E-1,2.3599548E0,0E0,0E0,3.5102963E-1,1.3672636E0,0E0,0E0,1.1388187E0,5.1394266E-1,0E0,0E0,0E0,0E0],"parents":[2147483647,0,0,1,1,2,2,5,5,6,6,9,9,10,10],"right_children":[2,4,6,-1,-1,8,10,-1,-1,12,14,-1,-1,-1,-1],"split_conditions":[-1.6021505E-1,-1.0697675E0,-9.090909E-2,3.227061E-3,-2.1105422E-2,-1.4698165E-2,0E0,4.435824E-2,1.2673399E-2,-7.073417E-1,5.76E-1,-5.4455176E-3,1.3456396E-2,-6.8379217E-4,-2.0560268E-2],"split_indices":[1,2,1,0,0,8,3,0,0,3,5,0,0,0,0],"split_type":[0,0,0,0,0,0,0,0,0,0,0,0,0,0,0],"sum_hessian":[3.8632946E1,7.842557E0,3.079039E1,1.9785582E0,5.863999E0,3.5802922E0,2.7210098E1,1.2329512E0,2.347341E0,1.918867E1,8.021429E0,8.052483E0,1.1136187E1,3.4278407E0,4.593589E0],"tree_param":{"num_deleted":"0","num_feature":"9","num_nodes":"15","size_leaf_vector":"1"}},{"base_weights":[2.5792168E-2,2.855705E-1,-3.8381845E-1,3.3991E-1,-1.904468E-2,-4.3572304E-1,1.2645097E-2,4.332464E-1,3.1251973E-3,-7.5410516E-4,-4.7252738E-1,-3.5401662E-3,2.0150686E-2,1.1940807E-2,-2.131385E-2,-1.1578352E-2,-2.5734305E-2],"categories":[],"categories_nodes":[],"categories_segments":[],"categories_sizes":[],"default_left":[0,0,0,0,0,0,0,0,0,0,0,0,0,0,0,0,0],"id":32,"left_children":[1,3,5,7,-1,9,-1,11,13,-1,15,-1,-1,-1,-1,-1,-1],"loss_changes":[5.801558E0,1.5403595E0,9.0743446E-1,9.9421763E-1,0E0,3.0014944E-1,0E0,9.567714E-1,1.406652E0,0E0,3.9133692E-1,0E0,0E0,0E0,0E0,0E0,0E0],"parents":[2147483647,0,0,1,1,2,2,3,3,5,5,7,7,8,8,10,10],"right_children":[2,4,6,8,-1,10,-1,12,14,-1,16,-1,-1,-1,-1,-1,-1],"split_conditions":[3.3793104E-1,1.5327324E0,1.4417022E0,1E0,-1.904468E-2,2.504E-1,1.2645097E-2,-1E0,1.5789473E-1,-7.5410516E-4,2.8482002E-1,-3.5401662E-3,2.0150686E-2,1.1940807E-2,-2.131385E-2,-1.1578352E-2,-2.5734305E-2],"split_indices":[2,8,2,7,0,6,0,2,4,0,1,0,0,0,0,0,0],"split_type":[0,0,0,0,0,0,0,0,0,0,0,0,0,0,0,0,0],"sum_hessian":[5.249177E1,3.2305923E1,2.018585E1,3.0671528E1,1.6343944E0,1.9143734E1,1.0421154E0,2.3791534E1,6.879995E0,1.675715E0,1.746802E1,2.8024545E0,2.0989079E1,4.7210617E0,2.1589332E0,9.732599E0,7.7354198E0],"tree_param":{"num_deleted":"0","num_feature":"9","num_nodes":"17","size_leaf_vector":"1"}},{"base_weights":[3.8458515E-2,-4.1728747E-1,2.2820412E-1,-5.254583E-1,5.6772847E-2,-5.571223E-2,3.7508306E-1,-1.0148043E-1,-6.045235E-1,2.5727708E-2,-2.0079356E-2,2.3151703E-2,-2.2015242E-1,7.064449E-1,2.3045455E-1,-1.6707968E-2,1.2687977E-2,-2.6592098E-2,-3.1061629E-3,-1.3163328E-2,1.0685947E-2,3.355818E-2,3.8953659E-3,-1.5686808E-2,1.759107E-2],"categories":[],"categories_nodes":[],"categories_segments":[],"categories_sizes":[],"default_left":[0,0,0,0,0,0,0,0,0,0,0,0,0,0,0,0,0,0,0,0,0,0,0,0,0],"id":33,"left_children":[1,3,5,7,9,11,13,15,17,-1,-1,-1,19,21,23,-1,-1,-1,-1,-1,-1,-1,-1,-1,-1],"loss_changes":[4.880942E0,8.8217425E-1,1.6772807E0,3.9558816E-1,1.6304389E0,1.6312686E0,1.0979414E0,5.752425E-1,3.0683517E-1,0E0,0E0,0E0,7.339815E-1,5.243354E-1,2.7527003E0,0E0,0E0,0E0,0E0,0E0,0E0,0E0,0E0,0E0,0E0],"parents":[2147483647,0,0,1,1,2,2,3,3,4,4,5,5,6,6,7,7,8,8,12,12,13,13,14,14],"right_children":[2,4,6,8,10,12,14,16,18,-1,-1,-1,20,22,24,-1,-1,-1,-1,-1,-1,-1,-1,-1,-1],"split_conditions":[-1.5734266E-1,6.805E-1,6.16E-1,-1E0,7.619E-1,-2.283105E-2,-7.9827315E-1,-2.872E-1,1.382E-1,2.5727708E-2,-2.0079356E-2,2.3151703E-2,1.0006254E0,5.96E-1,-4.9596775E-1,-1.6707968E-2,1.2687977E-2,-2.6592098E-2,-3.1061629E-3,-1.3163328E-2,1.0685947E-2,3.355818E-2,3.8953659E-3,-1.5686808E-2,1.759107E-2],"split_indices":[2,5,5,2,5,2,3,0,0,0,0,0,2,6,3,0,0,0,0,0,0,0,0,0,0],"split_type":[0,0,0,0,0,0,0,0,0,0,0,0,0,0,0,0,0,0,0,0,0,0,0,0,0],"sum_hessian":[5.4341675E1,1.5621508E1,3.872017E1,1.2630961E1,2.9905462E0,1.3413201E1,2.5306967E1,2.3441632E0,1.02867985E1,1.385421E0,1.6051251E0,2.242103E0,1.1171099E1,6.509149E0,1.8797817E1,1.33683E0,1.007333E0,8.995793E0,1.2910054E0,9.395516E0,1.7755818E0,5.0360346E0,1.4731146E0,4.5098457E0,1.42879715E1],"tree_param":{"num_deleted":"0","num_feature":"9","num_nodes":"25","size_leaf_vector":"1"}},{"base_weights":[8.462261E-2,-2.666158E-1,1.6209905E-1,-4.3662917E-2,-1.8494165E-2,7.8957766E-1,5.788253E-2,1.2552586E-2,-2.662982E-1,4.485982E-2,-3.6280158E-3,2.0394617E-1,-2.0893519E-1,-1.4263098E-2,-1.5888783E-3,3.6382556E-2,2.6258319E-3,-2.0165712E-2,2.0937403E-3],"categories":[],"categories_nodes":[],"categories_segments":[],"categories_sizes":[],"default_left":[0,0,0,0,0,0,0,0,0,0,0,0,0,0,0,0,0,0,0],"id":34,"left_children":[1,3,5,7,-1,9,11,-1,13,-1,-1,15,17,-1,-1,-1,-1,-1,-1],"loss_changes":[1.1340009E0,3.124364E-1,2.1424775E0,4.550442E-1,0E0,1.4711359E0,1.203005E0,0E0,5.573508E-2,0E0,0E0,1.8673935E0,8.7693894E-1,0E0,0E0,0E0,0E0,0E0,0E0],"parents":[2147483647,0,0,1,1,2,2,3,3,5,5,6,6,8,8,11,11,12,12],"right_children":[2,4,6,8,-1,10,12,-1,14,-1,-1,16,18,-1,-1,-1,-1,-1,-1],"split_conditions":[-1.6021505E-1,-2.8382352E-1,-2.805E-1,5.555556E-1,-1.8494165E-2,5.455178E-2,0E0,1.2552586E-2,-1.6071428E0,4.485982E-2,-3.6280158E-3,1.5757576E-1,1.8006992E-1,-1.4263098E-2,-1.5888783E-3,3.6382556E-2,2.6258319E-3,-2.0165712E-2,2.0937403E-3],"split_indices":[1,1,0,3,0,8,3,0,4,0,0,4,3,0,0,0,0,0,0],"split_type":[0,0,0,0,0,0,0,0,0,0,0,0,0,0,0,0,0,0,0],"sum_hessian":[3.9083595E1,6.621926E0,3.246167E1,3.667538E0,2.9543881E0,3.6868916E0,2.8774776E1,1.2503498E0,2.4171882E0,2.478372E0,1.2085195E0,1.8747496E1,1.002728E1,1.3181915E0,1.0989965E0,2.158411E0,1.6589085E1,4.2715344E0,5.755746E0],"tree_param":{"num_deleted":"0","num_feature":"9","num_nodes":"19","size_leaf_vector":"1"}},{"base_weights":[4.7269515E-3,2.2683929E-1,-4.3564808E-1,4.1297215E-1,-9.811442E-3,-5.1494443E-1,-3.0830834E-2,6.290857E-1,4.2384326E-2,-1.2158384E-1,2.8359372E-2,-5.7716346E-1,1.88078E-3,1.446974E-2,-1.180956E-2,1.7989001E-3,3.3151135E-2,-2.197761E-2,1.1886386E-2,2.1967065E-2,-8.334423E-3,-2.443512E-2,-4.9806647E-3],"categories":[],"categories_nodes":[],"categories_segments":[],"categories_sizes":[],"default_left":[0,0,0,0,0,0,0,0,0,0,0,0,0,0,0,0,0,0,0,0,0,0,0],"id":35,"left_children":[1,3,5,7,9,11,13,15,17,19,-1,21,-1,-1,-1,-1,-1,-1,-1,-1,-1,-1,-1],"loss_changes":[5.281675E0,1.5845095E0,5.653856E-1,1.583672E0,1.4337814E0,5.543339E-1,5.250775E-1,1.4357157E0,1.4417031E0,1.0090327E0,0E0,1.3224888E-1,0E0,0E0,0E0,0E0,0E0,0E0,0E0,0E0,0E0,0E0,0E0],"parents":[2147483647,0,0,1,1,2,2,3,3,4,4,5,5,6,6,7,7,8,8,9,9,11,11],"right_children":[2,4,6,8,10,12,14,16,18,20,-1,22,-1,-1,-1,-1,-1,-1,-1,-1,-1,-1,-1],"split_conditions":[3.5E-1,5.192E-1,7.235E-1,-2.4666667E-1,7.385965E-1,1.25E0,7.727E-1,4.808E-1,-6.666667E-1,-7.5E-1,2.8359372E-2,6E-1,1.88078E-3,1.446974E-2,-1.180956E-2,1.7989001E-3,3.3151135E-2,-2.197761E-2,1.1886386E-2,2.1967065E-2,-8.334423E-3,-2.443512E-2,-4.9806647E-3],"split_indices":[2,5,6,2,4,2,6,6,4,2,0,0,0,0,0,0,0,0,0,0,0,0,0],"split_type":[0,0,0,0,0,0,0,0,0,0,0,0,0,0,0,0,0,0,0,0,0,0,0],"sum_hessian":[5.1987507E1,3.4879963E1,1.7107542E1,1.9106815E1,1.577315E1,1.4077896E1,3.0296464E0,1.1628157E1,7.478658E0,1.4369544E1,1.4036065E0,1.2650251E1,1.4276454E0,1.0711515E0,1.9584947E0,3.2746925E0,8.353464E0,1.9025666E0,5.576092E0,1.0356483E0,1.3333895E1,1.1447999E1,1.2022523E0],"tree_param":{"num_deleted":"0","num_feature":"9","num_nodes":"23","size_leaf_vector":"1"}},{"base_weights":[4.4530995E-2,-4.0672693E-2,3.2895356E-2,-5.550672E-1,5.9074488E-2,-3.6948933E-3,-2.4737218E-2,-6.701612E-2,3.683214E-1,-1.0009348E-2,1.1116805E-2,-8.572973E-3,2.3101473E-2],"categories":[],"categories_nodes":[],"categories_segments":[],"categories_sizes":[],"default_left":[0,0,0,0,0,0,0,0,0,0,0,0,0],"id":36,"left_children":[1,3,-1,5,7,-1,-1,9,11,-1,-1,-1,-1],"loss_changes":[3.6733804E0,2.6214406E0,0E0,1.8593168E-1,1.7076794E0,0E0,0E0,2.0606863E0,1.6664221E0,0E0,0E0,0E0,0E0],"parents":[2147483647,0,0,1,1,3,3,4,4,7,7,8,8],"right_children":[2,4,-1,6,8,-1,-1,10,12,-1,-1,-1,-1],"split_conditions":[1.5339011E0,-2.765E-1,3.2895356E-2,6.16E-1,1E0,-3.6948933E-3,-2.4737218E-2,2.627E-1,4.224E-1,-1.0009348E-2,1.1116805E-2,-8.572973E-3,2.3101473E-2],"split_indices":[8,0,0,6,7,0,0,0,6,0,0,0,0],"split_type":[0,0,0,0,0,0,0,0,0,0,0,0,0],"sum_hessian":[5.3920864E1,4.9451775E1,4.469088E0,7.290427E0,4.2161346E1,1.1741687E0,6.1162586E0,3.0506208E1,1.1655139E1,2.0102856E1,1.0403354E1,3.0729198E0,8.582219E0],"tree_param":{"num_deleted":"0","num_feature":"9","num_nodes":"13","size_leaf_vector":"1"}},{"base_weights":[3.0059943E-2,-8.804364E-2,4.1587934E-1,2.7306845E-2,-1.4846197E-1,6.8965614E-1,-9.305947E-2,3.5460256E-2,-3.18901E-1,4.294362E-3,9.460444E-1,8.865584E-3,-1.536205E-2,-9.742793E-3,2.3329163E-2,-1.7598348E-2,2.096383E-3,4.6858516E-2,1.1762409E-2],"categories":[],"categories_nodes":[],"categories_segments":[],"categories_sizes":[],"default_left":[0,0,0,0,0,0,0,0,0,0,0,0,0,0,0,0,0,0,0],"id":37,"left_children":[1,3,5,-1,7,9,11,13,15,-1,17,-1,-1,-1,-1,-1,-1,-1,-1],"loss_changes":[1.7724205E0,1.4978943E0,1.3325078E0,0E0,9.0885955E-1,7.998209E-1,4.5737535E-1,2.384485E0,6.955519E-1,0E0,2.5279117E-1,0E0,0E0,0E0,0E0,0E0,0E0,0E0,0E0],"parents":[2147483647,0,0,1,1,2,2,4,4,5,5,6,6,7,7,8,8,10,10],"right_children":[2,4,6,-1,8,10,12,14,16,-1,18,-1,-1,-1,-1,-1,-1,-1,-1],"split_conditions":[7.727E-1,5.84E-2,1E0,2.7306845E-2,5.96E-1,-3.197767E-1,1.0344828E-1,3.121693E-1,3.429134E-1,4.294362E-3,1.4228886E-1,8.865584E-3,-1.536205E-2,-9.742793E-3,2.3329163E-2,-1.7598348E-2,2.096383E-3,4.6858516E-2,1.1762409E-2],"split_indices":[6,6,7,0,5,2,2,2,1,0,2,0,0,0,0,0,0,0,0],"split_type":[0,0,0,0,0,0,0,0,0,0,0,0,0,0,0,0,0,0,0],"sum_hessian":[3.709376E1,2.8991076E1,8.102688E0,1.3587952E0,2.763228E1,5.0376596E0,3.065028E0,1.3671352E1,1.3960927E1,1.9737365E0,3.063923E0,1.587031E0,1.477997E0,9.425435E0,4.245917E0,1.0388954E1,3.5719728E0,1.6846888E0,1.3792341E0],"tree_param":{"num_deleted":"0","num_feature":"9","num_nodes":"19","size_leaf_vector":"1"}},{"base_weights":[2.8902304E-3,2.073766E-1,-2.8855363E-1,6.563023E-1,1.3140911E-1,-1.0210587E-1,-2.5522651E-2,8.4246285E-3,3.0341603E-2,-2.1408468E-2,2.0227732E-1,1.6185723E-1,-2.8603607E-1,-4.822948E-3,1.5906772E-2,2.2632832E-2,-3.0752232E-3,-1.6758028E-2,8.660011E-3],"categories":[],"categories_nodes":[],"categories_segments":[],"categories_sizes":[],"default_left":[0,0,0,0,0,0,0,0,0,0,0,0,0,0,0,0,0,0,0],"id":38,"left_children":[1,3,5,7,9,11,-1,-1,-1,-1,13,15,17,-1,-1,-1,-1,-1,-1],"loss_changes":[3.2882173E0,1.0192782E0,1.4176553E0,4.261005E-2,1.4771135E0,8.2452536E-1,0E0,0E0,0E0,0E0,1.745913E0,7.3991364E-1,7.458266E-1,0E0,0E0,0E0,0E0,0E0,0E0],"parents":[2147483647,0,0,1,1,2,2,3,3,4,4,5,5,10,10,11,11,12,12],"right_children":[2,4,6,8,10,12,-1,-1,-1,-1,14,16,18,-1,-1,-1,-1,-1,-1],"split_conditions":[1.152E-1,-9.3177027E-1,3.7747797E-1,-1.96E-1,-5.195688E-1,1.0631229E-1,-2.5522651E-2,8.4246285E-3,3.0341603E-2,-2.1408468E-2,5.96E-1,-4.394265E-1,5.739E-1,-4.822948E-3,1.5906772E-2,2.2632832E-2,-3.0752232E-3,-1.6758028E-2,8.660011E-3],"split_indices":[0,8,8,0,8,1,0,0,0,0,6,3,0,0,0,0,0,0,0],"split_type":[0,0,0,0,0,0,0,0,0,0,0,0,0,0,0,0,0,0,0],"sum_hessian":[5.317078E1,3.1416447E1,2.1754335E1,3.4412591E0,2.7975187E1,1.502916E1,6.7251763E0,1.2130879E0,2.2281713E0,2.058617E0,2.5916569E1,6.221101E0,8.808059E0,9.915634E0,1.6000935E1,1.8019705E0,4.4191303E0,7.0972514E0,1.7108077E0],"tree_param":{"num_deleted":"0","num_feature":"9","num_nodes":"19","size_leaf_vector":"1"}},{"base_weights":[-3.0860338E-2,-2.7210858E-1,2.8776562E-1,-7.773885E-2,-4.5980027E-1,3.9152396E-1,-2.8196242E-1,-2.219673E-2,5.65455E-2,-2.6344968E-2,-2.4776699E-1,-4.0587154E-4,5.444089E-1,4.360268E-3,-2.0855378E-2,-2.1076739E-2,8.416406E-3,-2.290029E-2,8.62516E-3,1.4877541E-2,-1.2368807E-2,6.0521667E-3,2.6143031E-2],"categories":[],"categories_nodes":[],"categories_segments":[],"categories_sizes":[],"default_left":[0,0,0,0,0,0,0,0,0,0,0,0,0,0,0,0,0,0,0,0,0,0,0],"id":39,"left_children":[1,3,5,7,9,11,13,-1,15,-1,17,19,21,-1,-1,-1,-1,-1,-1,-1,-1,-1,-1],"loss_changes":[3.8927927E0,1.0132871E0,1.4031492E0,1.0136712E0,4.4494915E-1,1.133811E0,4.2662585E-1,0E0,1.2663256E0,0E0,1.4151747E0,8.4034795E-1,4.851823E-1,0E0,0E0,0E0,0E0,0E0,0E0,0E0,0E0,0E0,0E0],"parents":[2147483647,0,0,1,1,2,2,3,3,4,4,5,5,6,6,8,8,10,10,11,11,12,12],"right_children":[2,4,6,8,10,12,14,-1,16,-1,18,20,22,-1,-1,-1,-1,-1,-1,-1,-1,-1,-1],"split_conditions":[4.0299878E-1,6.375E-1,2E0,-2.791824E-1,7.727E-1,4E-1,-1.08E0,-2.219673E-2,-3.5042736E-1,-2.6344968E-2,-3.035E-1,5.416667E-1,1.8421052E-1,4.360268E-3,-2.0855378E-2,-2.1076739E-2,8.416406E-3,-2.290029E-2,8.62516E-3,1.4877541E-2,-1.2368807E-2,6.0521667E-3,2.6143031E-2],"split_indices":[4,6,4,8,6,2,3,0,3,0,0,4,1,0,0,0,0,0,0,0,0,0,0],"split_type":[0,0,0,0,0,0,0,0,0,0,0,0,0,0,0,0,0,0,0,0,0,0,0],"sum_hessian":[4.8623913E1,2.7755089E1,2.0868824E1,1.4329711E1,1.3425377E1,1.791834E1,2.9504828E0,2.4590533E0,1.1870658E1,5.841533E0,7.583844E0,5.308087E0,1.2610254E1,1.3274711E0,1.6230117E0,1.9711984E0,9.899459E0,4.3205876E0,3.2632565E0,2.313835E0,2.994252E0,3.259378E0,9.350877E0],"tree_param":{"num_deleted":"0","num_feature":"9","num_nodes":"23","size_leaf_vector":"1"}},{"base_weights":[-7.6153283E-3,-1.1951786E-1,3.2368955E-1,6.0071617E-2,-3.5997763E-1,5.3114754E-1,-9.9331826E-2,2.1033403E-2,-5.1249042E-2,2.2969495E-3,-4.270709E-1,-1.4616873E-2,8.261476E-1,1.5614369E-2,-1.6974598E-2,4.936943E-3,-1.3381832E-2,3.4692022E-3,-1.9779699E-2,4.2901002E-2,4.8493072E-3],"categories":[],"categories_nodes":[],"categories_segments":[],"categories_sizes":[],"default_left":[0,0,0,0,0,0,0,0,0,0,0,0,0,0,0,0,0,0,0,0,0],"id":40,"left_children":[1,3,5,7,9,11,13,-1,15,-1,17,-1,19,-1,-1,-1,-1,-1,-1,-1,-1],"loss_changes":[1.4659394E0,1.2958945E0,9.2944396E-1,9.472163E-1,3.8183534E-1,2.116315E0,8.229345E-1,0E0,7.9524904E-1,0E0,4.2777205E-1,0E0,8.1970406E-1,0E0,0E0,0E0,0E0,0E0,0E0,0E0,0E0],"parents":[2147483647,0,0,1,1,2,2,3,3,4,4,5,5,6,6,8,8,10,10,12,12],"right_children":[2,4,6,8,10,12,14,-1,16,-1,18,-1,20,-1,-1,-1,-1,-1,-1,-1,-1],"split_conditions":[7.727E-1,-1.724138E-2,1E0,1.9444445E-1,-1.6331168E0,-4.5478532E-1,0E0,2.1033403E-2,-4.9596775E-1,2.2969495E-3,-7.163675E-1,-1.4616873E-2,5.0104165E-1,1.5614369E-2,-1.6974598E-2,4.936943E-3,-1.3381832E-2,3.4692022E-3,-1.9779699E-2,4.2901002E-2,4.8493072E-3],"split_indices":[6,3,7,4,4,8,8,0,3,0,8,0,3,0,0,0,0,0,0,0,0],"split_type":[0,0,0,0,0,0,0,0,0,0,0,0,0,0,0,0,0,0,0,0,0],"sum_hessian":[3.749755E1,2.8507889E1,8.989659E0,1.6748962E1,1.1758928E1,5.8601317E0,3.1295276E0,2.5126162E0,1.4236345E1,1.6483445E0,1.0110583E1,1.3917089E0,4.468423E0,1.1683393E0,1.9611884E0,9.155599E0,5.080747E0,1.1396036E0,8.97098E0,2.9247036E0,1.5437195E0],"tree_param":{"num_deleted":"0","num_feature":"9","num_nodes":"21","size_leaf_vector":"1"}},{"base_weights":[-5.2533142E-2,1.6947114E-1,-5.4983515E-1,6.114658E-1,2.8310375E-2,-2.173472E-1,-2.4557346E-2,-3.8099615E-3,2.8630022E-2,1.6700858E-1,-2.895904E-1,-2.0232137E-2,1.3186266E-2,-3.846419E-3,1.7857807E-2,1.4061483E-2,-1.7287692E-2],"categories":[],"categories_nodes":[],"categories_segments":[],"categories_sizes":[],"default_left":[0,0,0,0,0,0,0,0,0,0,0,0,0,0,0,0,0],"id":41,"left_children":[1,3,5,7,9,11,-1,-1,-1,13,15,-1,-1,-1,-1,-1,-1],"loss_changes":[5.9882975E0,2.3336697E0,2.228074E-1,7.368183E-1,1.35385E0,8.37291E-1,0E0,0E0,0E0,1.6055201E0,1.0076439E0,0E0,0E0,0E0,0E0,0E0,0E0],"parents":[2147483647,0,0,1,1,2,2,3,3,4,4,5,5,9,9,10,10],"right_children":[2,4,6,8,10,12,-1,-1,-1,14,16,-1,-1,-1,-1,-1,-1],"split_conditions":[4.722222E-1,-2.1428572E-1,8.08E-2,-5E-1,1E0,5.455178E-2,-2.4557346E-2,-3.8099615E-3,2.8630022E-2,-1.1004984E-1,-7.5257516E-1,-2.0232137E-2,1.3186266E-2,-3.846419E-3,1.7857807E-2,1.4061483E-2,-1.7287692E-2],"split_indices":[2,1,0,1,7,8,0,0,0,4,4,0,0,0,0,0,0],"split_type":[0,0,0,0,0,0,0,0,0,0,0,0,0,0,0,0,0],"sum_hessian":[5.239626E1,3.6680614E1,1.5715647E1,8.072562E0,2.8608051E1,3.2497222E0,1.2465924E1,1.0491756E0,7.0233865E0,2.0248432E1,8.359618E0,2.1770172E0,1.072705E0,1.0765515E1,9.482918E0,1.2544668E0,7.1051517E0],"tree_param":{"num_deleted":"0","num_feature":"9","num_nodes":"17","size_leaf_vector":"1"}},{"base_weights":[-5.245554E-2,-2.9637864E-1,2.0035586E-1,2.2170769E-1,-3.546825E-1,-8.420131E-2,3.796618E-1,-1.5241684E-2,2.65633E-2,-5.2593964E-1,-1.1118936E-1,-4.47522E-1,1.2928466E-1,4.8520333E-1,-1.16219325E-2,-2.3307497E-2,-3.4963738E-3,-1.2019661E-2,6.392742E-3,9.010018E-4,-2.3611115E-2,-1.1201039E-2,1.8810518E-2,8.218509E-3,2.8157506E-2],"categories":[],"categories_nodes":[],"categories_segments":[],"categories_sizes":[],"default_left":[0,0,0,0,0,0,0,0,0,0,0,0,0,0,0,0,0,0,0,0,0,0,0,0,0],"id":42,"left_children":[1,3,5,7,9,11,13,-1,-1,15,17,19,21,23,-1,-1,-1,-1,-1,-1,-1,-1,-1,-1,-1],"loss_changes":[3.4464483E0,9.3521523E-1,1.4385649E0,1.1819718E0,1.0204527E0,9.478932E-1,1.3500586E0,0E0,0E0,3.2040977E-1,6.6117793E-1,3.133214E-1,1.248729E0,7.818973E-1,0E0,0E0,0E0,0E0,0E0,0E0,0E0,0E0,0E0,0E0,0E0],"parents":[2147483647,0,0,1,1,2,2,3,3,4,4,5,5,6,6,9,9,10,10,11,11,12,12,13,13],"right_children":[2,4,6,8,10,12,14,-1,-1,16,18,20,22,24,-1,-1,-1,-1,-1,-1,-1,-1,-1,-1,-1],"split_conditions":[1.4228886E-1,-1.6428572E0,8.08E-2,-3.994E-1,-1.7663817E-1,-3.219512E-1,2E0,-1.5241684E-2,2.65633E-2,2.888E-1,1.4571607E-1,-1.459E-1,4.0299878E-1,1.1888889E0,-1.16219325E-2,-2.3307497E-2,-3.4963738E-3,-1.2019661E-2,6.392742E-3,9.010018E-4,-2.3611115E-2,-1.1201039E-2,1.8810518E-2,8.218509E-3,2.8157506E-2],"split_indices":[2,4,0,0,2,3,4,0,0,0,3,0,4,4,0,0,0,0,0,0,0,0,0,0,0],"split_type":[0,0,0,0,0,0,0,0,0,0,0,0,0,0,0,0,0,0,0,0,0,0,0,0,0],"sum_hessian":[5.392552E1,2.735751E1,2.6568012E1,2.4838114E0,2.4873697E1,1.0474873E1,1.609314E1,1.1100192E0,1.3737923E0,1.3921941E1,1.0951757E1,3.4711845E0,7.003688E0,1.4142143E1,1.9509954E0,1.2035734E1,1.8862067E0,6.3838034E0,4.567954E0,1.0048302E0,2.4663544E0,3.264153E0,3.7395349E0,7.056662E0,7.0854816E0],"tree_param":{"num_deleted":"0","num_feature":"9","num_nodes":"25","size_leaf_vector":"1"}},{"base_weights":[1.4383183E-2,3.3724228E-1,-7.161324E-2,-1.2612273E-1,3.9705064E-2,-4.7056562E-1,8.437519E-2,1.7121223E-1,-1.6760271E-2,-1.019658E-3,-2.119198E-2,-1.858558E-2,1.8661888E-1,-3.900726E-3,1.5512893E-2,2.6779993E-2,9.275445E-4],"categories":[],"categories_nodes":[],"categories_segments":[],"categories_sizes":[],"default_left":[0,0,0,0,0,0,0,0,0,0,0,0,0,0,0,0,0],"id":43,"left_children":[1,3,5,7,-1,9,11,13,-1,-1,-1,-1,15,-1,-1,-1,-1],"loss_changes":[1.0166819E0,2.4617767E0,1.8477747E0,5.4153097E-1,0E0,2.0580602E-1,1.3067659E0,2.3497044E-1,0E0,0E0,0E0,0E0,1.4867585E0,0E0,0E0,0E0,0E0],"parents":[2147483647,0,0,1,1,2,2,3,3,5,5,6,6,7,7,12,12],"right_children":[2,4,6,8,-1,10,12,14,-1,-1,-1,-1,16,-1,-1,-1,-1],"split_conditions":[-2.805E-1,-7.2619045E-1,-2.4184704E-1,8.833E-1,3.9705064E-2,-1.936E-1,-1.459E-1,7.727E-1,-1.6760271E-2,-1.019658E-3,-2.119198E-2,-1.858558E-2,5.96E-1,-3.900726E-3,1.5512893E-2,2.6779993E-2,9.275445E-4],"split_indices":[0,4,4,6,0,0,0,6,0,0,0,0,5,0,0,0,0],"split_type":[0,0,0,0,0,0,0,0,0,0,0,0,0,0,0,0,0],"sum_hessian":[3.4747906E1,6.6941733E0,2.8053734E1,4.3946557E0,2.2995176E0,7.3187633E0,2.073497E1,2.3869047E0,2.007751E0,1.0276339E0,6.2911296E0,2.6988122E0,1.8036158E1,1.3106668E0,1.0762379E0,3.7777228E0,1.4258435E1],"tree_param":{"num_deleted":"0","num_feature":"9","num_nodes":"17","size_leaf_vector":"1"}},{"base_weights":[1.8474894E-2,2.4989536E-1,-3.923223E-1,6.071359E-1,1.3100778E-1,-4.2659054E-3,-5.2743024E-1,-1.8107301E-3,3.2232642E-2,1.8820304E-1,-1.8288562E-2,-2.5081804E-1,1.3431687E-2,-2.3771798E-2,-3.7445533E-3,1.1259397E-2,-6.1771944E-3,-1.907902E-2,5.72846E-3],"categories":[],"categories_nodes":[],"categories_segments":[],"categories_sizes":[],"default_left":[0,0,0,0,0,0,0,0,0,0,0,0,0,0,0,0,0,0,0],"id":44,"left_children":[1,3,5,7,9,11,13,-1,-1,15,-1,17,-1,-1,-1,-1,-1,-1,-1],"loss_changes":[4.889807E0,1.315738E0,9.704249E-1,1.0640924E0,9.5823026E-1,5.704436E-1,3.4329367E-1,0E0,0E0,8.2126015E-1,0E0,4.1890037E-1,0E0,0E0,0E0,0E0,0E0,0E0,0E0],"parents":[2147483647,0,0,1,1,2,2,3,3,4,4,5,5,6,6,9,9,11,11],"right_children":[2,4,6,8,10,12,14,-1,-1,16,-1,18,-1,-1,-1,-1,-1,-1,-1],"split_conditions":[3.5E-1,-2.1428572E-1,7.68E-2,-1.2438356E0,1.5327324E0,0E0,5.76E-1,-1.8107301E-3,3.2232642E-2,2.535E-1,-1.8288562E-2,7.4E-1,1.3431687E-2,-2.3771798E-2,-3.7445533E-3,1.1259397E-2,-6.1771944E-3,-1.907902E-2,5.72846E-3],"split_indices":[2,1,0,2,8,0,0,0,0,0,0,2,0,0,0,0,0,0,0],"split_type":[0,0,0,0,0,0,0,0,0,0,0,0,0,0,0,0,0,0,0],"sum_hessian":[4.9404175E1,3.1852125E1,1.7552048E1,6.927912E0,2.4924213E1,4.7992477E0,1.27528E1,1.7975316E0,5.1303806E0,2.3335274E1,1.5889382E0,2.9342535E0,1.8649945E0,1.0729175E1,2.0236254E0,1.8482008E1,4.853266E0,1.730505E0,1.2037486E0],"tree_param":{"num_deleted":"0","num_feature":"9","num_nodes":"19","size_leaf_vector":"1"}},{"base_weights":[-1.7552346E-2,-2.4673088E-2,9.9366136E-2,-2.4584543E-2,2.9385635E-1,4.529402E-1,-1.11962765E-1,4.3221512E-1,-3.097472E-1,2.4936045E-2,-9.3013456E-4,-2.228165E-2,1.4256751E-3,-6.7749643E-3,2.0141067E-2,5.885958E-4,-2.014318E-2],"categories":[],"categories_nodes":[],"categories_segments":[],"categories_sizes":[],"default_left":[0,0,0,0,0,0,0,0,0,0,0,0,0,0,0,0,0],"id":45,"left_children":[1,-1,3,5,7,9,11,13,15,-1,-1,-1,-1,-1,-1,-1,-1],"loss_changes":[3.6078508E0,0E0,1.0490215E0,1.1905137E0,1.5451267E0,3.7356335E-1,1.5895399E0,6.9295406E-1,2.4222624E-1,0E0,0E0,0E0,0E0,0E0,0E0,0E0,0E0],"parents":[2147483647,0,0,2,2,3,3,4,4,5,5,6,6,7,7,8,8],"right_children":[2,-1,4,6,8,10,12,14,16,-1,-1,-1,-1,-1,-1,-1,-1],"split_conditions":[-2.872E-1,-2.4673088E-2,2.12E-1,-9.264706E-1,5.739E-1,-1.8287373E-1,4.224E-1,-1.182266E-1,2.9166666E-1,2.4936045E-2,-9.3013456E-4,-2.228165E-2,1.4256751E-3,-6.7749643E-3,2.0141067E-2,5.885958E-4,-2.014318E-2],"split_indices":[0,0,0,4,0,1,6,1,1,0,0,0,0,0,0,0,0],"split_type":[0,0,0,0,0,0,0,0,0,0,0,0,0,0,0,0,0],"sum_hessian":[4.961719E1,7.4019933E0,4.22152E1,2.6316813E1,1.5898388E1,3.4235158E0,2.2893295E1,1.31647005E1,2.7336874E0,2.2934177E0,1.1300982E0,5.010637E0,1.788266E1,1.2494159E0,1.1915284E1,1.3679373E0,1.36575E0],"tree_param":{"num_deleted":"0","num_feature":"9","num_nodes":"17","size_leaf_vector":"1"}},{"base_weights":[2.5461642E-3,-1.0412442E-1,3.1996274E-1,4.7595266E-2,-2.993064E-1,-1.19859636E-1,5.559445E-1,2.911247E-1,-3.0281553E-1,-3.9931595E-1,1.5813094E-2,-1.4915165E-2,5.702498E-3,3.9717756E-2,-4.54381E-2,-6.609996E-3,2.6364565E-2,-1.7610757E-2,1.0110992E-2,9.178439E-3,-2.0217014E-2,1.0652334E-2,-1.4425262E-2],"categories":[],"categories_nodes":[],"categories_segments":[],"categories_sizes":[],"default_left":[0,0,0,0,0,0,0,0,0,0,0,0,0,0,0,0,0,0,0,0,0,0,0],"id":46,"left_children":[1,3,5,7,9,11,13,15,17,19,-1,-1,-1,-1,21,-1,-1,-1,-1,-1,-1,-1,-1],"loss_changes":[1.3478934E0,8.971215E-1,1.1056966E0,1.593248E0,1.073231E0,3.3989203E-1,1.804003E0,1.9420748E0,7.0099294E-1,9.1764975E-1,0E0,0E0,0E0,0E0,4.6676302E-1,0E0,0E0,0E0,0E0,0E0,0E0,0E0,0E0],"parents":[2147483647,0,0,1,1,2,2,3,3,4,4,5,5,6,6,7,7,8,8,9,9,14,14],"right_children":[2,4,6,8,10,12,14,16,18,20,-1,-1,-1,-1,22,-1,-1,-1,-1,-1,-1,-1,-1],"split_conditions":[7.727E-1,5.192E-1,-3.197767E-1,2.3723723E-1,3.4672618E-1,-4.792E-1,1E0,6.921373E-2,2.344697E0,-3.011E-1,1.5813094E-2,-1.4915165E-2,5.702498E-3,3.9717756E-2,5.455178E-2,-6.609996E-3,2.6364565E-2,-1.7610757E-2,1.0110992E-2,9.178439E-3,-2.0217014E-2,1.0652334E-2,-1.4425262E-2],"split_indices":[6,6,2,1,1,0,7,4,4,0,0,0,0,0,8,0,0,0,0,0,0,0,0],"split_type":[0,0,0,0,0,0,0,0,0,0,0,0,0,0,0,0,0,0,0,0,0,0,0],"sum_hessian":[3.7825035E1,2.8813852E1,9.011181E0,1.6637371E1,1.2176482E1,3.318412E0,5.692769E0,9.915476E0,6.7218943E0,1.1015651E1,1.1608315E0,1.475177E0,1.8432349E0,2.9198992E0,2.7728696E0,4.672123E0,5.2433534E0,5.5551195E0,1.1667747E0,1.4226863E0,9.592964E0,1.4720317E0,1.3008379E0],"tree_param":{"num_deleted":"0","num_feature":"9","num_nodes":"23","size_leaf_vector":"1"}},{"base_weights":[-3.1226934E-3,1.711542E-1,-3.8937703E-1,2.8699001E-2,7.961219E-2,-5.4529E-1,1.339089E-2,4.704858E-1,-2.6080312E-2,-5.812255E-1,-3.5957412E-3,2.4769813E-1,-1.10930335E-2,-2.5667027E-3,2.953269E-2,-1.4673622E-2,2.3558452E-3,-2.4954373E-2,-5.3040907E-3,-8.605086E-3,2.7257625E-2],"categories":[],"categories_nodes":[],"categories_segments":[],"categories_sizes":[],"default_left":[0,0,0,0,0,0,0,0,0,0,0,0,0,0,0,0,0,0,0,0,0],"id":47,"left_children":[1,3,5,-1,7,9,11,13,15,17,-1,19,-1,-1,-1,-1,-1,-1,-1,-1,-1],"loss_changes":[3.6532567E0,1.813792E0,1.066752E0,0E0,1.3824284E0,1.4718747E-1,4.558912E-1,1.065757E0,8.0499786E-1,1.298182E-1,0E0,8.844892E-1,0E0,0E0,0E0,0E0,0E0,0E0,0E0,0E0,0E0],"parents":[2147483647,0,0,1,1,2,2,4,4,5,5,6,6,7,7,8,8,9,9,11,11],"right_children":[2,4,6,-1,8,10,12,14,16,18,-1,20,-1,-1,-1,-1,-1,-1,-1,-1,-1],"split_conditions":[4.722222E-1,-9.3177027E-1,5.76E-1,2.8699001E-2,-2.2299652E-1,4.6E-1,8.08E-2,-1E0,0E0,6E-1,-3.5957412E-3,5.455178E-2,-1.10930335E-2,-2.5667027E-3,2.953269E-2,-1.4673622E-2,2.3558452E-3,-2.4954373E-2,-5.3040907E-3,-8.605086E-3,2.7257625E-2],"split_indices":[2,8,6,0,1,1,0,2,8,0,0,8,0,0,0,0,0,0,0,0,0],"split_type":[0,0,0,0,0,0,0,0,0,0,0,0,0,0,0,0,0,0,0,0,0],"sum_hessian":[5.2280872E1,3.640977E1,1.5871101E1,4.244001E0,3.216577E1,1.1186794E1,4.684307E0,6.1117487E0,2.6054022E1,1.0112506E1,1.0742881E0,2.675735E0,2.008572E0,2.2936041E0,3.8181448E0,4.538284E0,2.1515738E1,8.878181E0,1.2343248E0,1.5383056E0,1.1374294E0],"tree_param":{"num_deleted":"0","num_feature":"9","num_nodes":"21","size_leaf_vector":"1"}},{"base_weights":[-9.381954E-3,-1.9533576E-1,4.0942937E-1,-2.4697874E-2,-6.952434E-2,3.1507805E-2,2.2137779E-1,-2.2855889E-2,1.0477205E-2,-1.8250506E-1,5.210233E-1,-6.040107E-3,1.07655665E-2,-1.8674653E-2,6.165784E-3,2.5433682E-2,-9.072443E-4],"categories":[],"categories_nodes":[],"categories_segments":[],"categories_sizes":[],"default_left":[0,0,0,0,0,0,0,0,0,0,0,0,0,0,0,0,0],"id":48,"left_children":[1,3,5,-1,7,-1,9,-1,11,13,15,-1,-1,-1,-1,-1,-1],"loss_changes":[4.249086E0,1.9618107E0,1.0194769E0,0E0,1.2188766E0,0E0,1.620101E0,0E0,1.1699473E0,6.566503E-1,4.8222208E-1,0E0,0E0,0E0,0E0,0E0,0E0],"parents":[2147483647,0,0,1,1,2,2,4,4,6,6,8,8,9,9,10,10],"right_children":[2,4,6,-1,8,-1,10,-1,12,14,16,-1,-1,-1,-1,-1,-1],"split_conditions":[1.9512194E-1,-2.872E-1,2.6618358E-1,-2.4697874E-2,-9.3177027E-1,3.1507805E-2,3.303E-1,-2.2855889E-2,1.4571607E-1,9.9308753E-1,1E0,-6.040107E-3,1.07655665E-2,-1.8674653E-2,6.165784E-3,2.5433682E-2,-9.072443E-4],"split_indices":[1,0,1,0,8,0,0,0,3,2,7,0,0,0,0,0,0],"split_type":[0,0,0,0,0,0,0,0,0,0,0,0,0,0,0,0,0],"sum_hessian":[5.2532784E1,3.6749474E1,1.578331E1,7.5409718E0,2.9208502E1,4.1821656E0,1.1601145E1,3.1713536E0,2.6037148E1,5.107642E0,6.4935026E0,1.6286116E1,9.751032E0,2.5591648E0,2.5484774E0,5.2213926E0,1.2721099E0],"tree_param":{"num_deleted":"0","num_feature":"9","num_nodes":"17","size_leaf_vector":"1"}},{"base_weights":[9.021446E-2,-2.639986E-1,1.7166077E-1,7.878594E-3,-4.119608E-1,3.316386E-2,6.403019E-2,-1.9473752E-2,-5.209396E-4,2.186021E-1,-2.0709439E-1,3.7422232E-2,2.0845733E-3,-2.0463504E-2,4.749861E-3],"categories":[],"categories_nodes":[],"categories_segments":[],"categories_sizes":[],"default_left":[0,0,0,0,0,0,0,0,0,0,0,0,0,0,0],"id":49,"left_children":[1,3,5,-1,7,-1,9,-1,-1,11,13,-1,-1,-1,-1],"loss_changes":[1.1788327E0,6.0901064E-1,2.250256E0,0E0,1.7834723E-1,0E0,1.2629454E0,0E0,0E0,2.2182016E0,1.1584543E0,0E0,0E0,0E0,0E0],"parents":[2147483647,0,0,1,1,2,2,4,4,6,6,9,9,10,10],"right_children":[2,4,6,-1,8,-1,10,-1,-1,12,14,-1,-1,-1,-1],"split_conditions":[-1.57E-1,-1.0697675E0,-2.805E-1,7.878594E-3,-3.3333334E-1,3.316386E-2,0E0,-1.9473752E-2,-5.209396E-4,1.9444445E-1,1.8425927E-1,3.7422232E-2,2.0845733E-3,-2.0463504E-2,4.749861E-3],"split_indices":[1,2,0,0,2,0,3,0,0,4,3,0,0,0,0],"split_type":[0,0,0,0,0,0,0,0,0,0,0,0,0,0,0],"sum_hessian":[3.8290825E1,6.7394257E0,3.1551401E1,1.557132E0,5.182294E0,3.4956827E0,2.8055717E1,4.177752E0,1.0045415E0,1.7991966E1,1.006375E1,2.5201154E0,1.5471851E1,4.9076114E0,5.1561394E0],"tree_param":{"num_deleted":"0","num_feature":"9","num_nodes":"15","size_leaf_vector":"1"}},{"base_weights":[-3.4093812E-2,4.5903158E-1,-2.1167345E-1,-7.977849E-2,5.87503E-1,-3.5858E-1,-1.1146275E-2,-9.610564E-3,6.0546226E-3,7.011748E-1,-7.5487434E-3,-2.0025675E-1,-2.644832E-2,3.9336875E-1,-1.8071057E-1,3.1418923E-2,2.3036143E-3,-1.71699E-2,1.0386625E-2,3.934443E-4,3.0616738E-2,1.5150848E-3,-2.2766978E-2],"categories":[],"categories_nodes":[],"categories_segments":[],"categories_sizes":[],"default_left":[0,0,0,0,0,0,0,0,0,0,0,0,0,0,0,0,0,0,0,0,0,0,0],"id":50,"left_children":[1,3,5,7,9,11,13,-1,-1,15,-1,17,-1,19,21,-1,-1,-1,-1,-1,-1,-1,-1],"loss_changes":[4.5960326E0,1.0102949E0,1.1289029E0,1.6842927E-1,1.1344831E0,9.2953825E-1,1.2572383E0,0E0,0E0,5.0375986E-1,0E0,1.7950554E0,0E0,7.662371E-1,1.1144334E0,0E0,0E0,0E0,0E0,0E0,0E0,0E0,0E0],"parents":[2147483647,0,0,1,1,2,2,3,3,4,4,5,5,6,6,9,9,11,11,13,13,14,14],"right_children":[2,4,6,8,10,12,14,-1,-1,16,-1,18,-1,20,22,-1,-1,-1,-1,-1,-1,-1,-1],"split_conditions":[-1.2142857E-1,-1.6331168E0,-1.2169312E-1,6.16E-1,6.805E-1,-4.027778E-1,6.306306E-2,-9.610564E-3,6.0546226E-3,8.666667E-1,-7.5487434E-3,5.192E-1,-2.644832E-2,1.1627907E-2,8.3333336E-2,3.1418923E-2,2.3036143E-3,-1.71699E-2,1.0386625E-2,3.934443E-4,3.0616738E-2,1.5150848E-3,-2.2766978E-2],"split_indices":[1,4,3,6,5,3,3,0,0,3,0,6,0,3,1,0,0,0,0,0,0,0,0],"split_type":[0,0,0,0,0,0,0,0,0,0,0,0,0,0,0,0,0,0,0,0,0,0,0],"sum_hessian":[5.0375103E1,1.291796E1,3.7457146E1,2.5600617E0,1.0357899E1,2.11641E1,1.6293043E1,1.4876884E0,1.0723732E0,9.11915E0,1.2387486E0,1.4985825E1,6.1782765E0,4.422584E0,1.187046E1,7.8681006E0,1.2510493E0,1.00491495E1,4.9366755E0,2.6831052E0,1.7394788E0,8.173657E0,3.6968021E0],"tree_param":{"num_deleted":"0","num_feature":"9","num_nodes":"23","size_leaf_vector":"1"}},{"base_weights":[1.6168837E-2,-1.6151278E-1,4.53152E-1,-5.415839E-1,-4.172465E-2,5.5062026E-1,-1.1698316E-2,-2.487277E-3,-2.3974005E-2,-2.2520706E-2,3.4814876E-2,2.9007998E-1,2.8536927E-2,1.3363695E-2,-5.983249E-3,-1.8440602E-2,2.0281157E-2],"categories":[],"categories_nodes":[],"categories_segments":[],"categories_sizes":[],"default_left":[0,0,0,0,0,0,0,0,0,0,0,0,0,0,0,0,0],"id":51,"left_children":[1,3,5,7,9,11,-1,-1,-1,-1,13,15,-1,-1,-1,-1,-1],"loss_changes":[4.322137E0,1.7822142E0,1.3297465E0,2.2350311E-1,1.2654783E0,4.1103697E-1,0E0,0E0,0E0,0E0,1.6045189E0,1.4213383E0,0E0,0E0,0E0,0E0,0E0],"parents":[2147483647,0,0,1,1,2,2,3,3,4,4,5,5,10,10,11,11],"right_children":[2,4,6,8,10,12,-1,-1,-1,-1,14,16,-1,-1,-1,-1,-1],"split_conditions":[1.9909503E-1,-2.872E-1,2.262931E0,6.16E-1,-9.3177027E-1,3.035E-1,-1.1698316E-2,-2.487277E-3,-2.3974005E-2,-2.2520706E-2,-2.5190222E-1,6.713178E-1,2.8536927E-2,1.3363695E-2,-5.983249E-3,-1.8440602E-2,2.0281157E-2],"split_indices":[1,0,4,6,8,0,0,0,0,0,4,2,0,0,0,0,0],"split_type":[0,0,0,0,0,0,0,0,0,0,0,0,0,0,0,0,0],"sum_hessian":[5.372353E1,3.8641792E1,1.5081738E1,8.416434E0,3.0225359E1,1.3569421E1,1.5123172E0,1.1283879E0,7.288046E0,3.0559669E0,2.7169392E1,6.2880983E0,7.2813225E0,1.0048581E1,1.7120811E1,1.1571068E0,5.130992E0],"tree_param":{"num_deleted":"0","num_feature":"9","num_nodes":"17","size_leaf_vector":"1"}},{"base_weights":[-2.8804488E-2,2.4023645E-2,-6.2759936E-2,-1.6474527E-1,2.0867486E-1,2.0547323E-1,-2.7205637E-1,4.471001E-1,-1.7004178E-1,-9.776104E-3,3.6708146E-2,-2.2035629E-2,-2.8314749E-3,-1.4446435E-2,2.8874593E-2,1.5507992E-2,-1.839139E-2],"categories":[],"categories_nodes":[],"categories_segments":[],"categories_sizes":[],"default_left":[0,0,0,0,0,0,0,0,0,0,0,0,0,0,0,0,0],"id":52,"left_children":[1,-1,3,5,7,9,11,13,15,-1,-1,-1,-1,-1,-1,-1,-1],"loss_changes":[8.439693E-1,0E0,1.0503516E0,1.1379642E0,1.0209397E0,2.3679707E0,1.1701897E0,1.7480575E0,9.486732E-1,0E0,0E0,0E0,0E0,0E0,0E0,0E0,0E0],"parents":[2147483647,0,0,2,2,3,3,4,4,5,5,6,6,7,7,8,8],"right_children":[2,-1,4,6,8,10,12,14,16,-1,-1,-1,-1,-1,-1,-1,-1],"split_conditions":[-1.0810345E0,2.4023645E-2,7.727E-1,-2.9965156E-1,1E0,-1.0227273E-1,3.125E-1,-4.5478532E-1,0E0,-9.776104E-3,3.6708146E-2,-2.2035629E-2,-2.8314749E-3,-1.4446435E-2,2.8874593E-2,1.5507992E-2,-1.839139E-2],"split_indices":[3,0,6,2,7,1,2,8,8,0,0,0,0,0,0,0,0],"split_type":[0,0,0,0,0,0,0,0,0,0,0,0,0,0,0,0,0],"sum_hessian":[3.6726864E1,1.0257639E0,3.57011E1,2.6236427E1,9.464672E0,5.690323E0,2.0546104E1,5.6973047E0,3.7673671E0,3.8900478E0,1.800275E0,7.885133E0,1.2660973E1,1.3656392E0,4.3316655E0,1.172424E0,2.594943E0],"tree_param":{"num_deleted":"0","num_feature":"9","num_nodes":"17","size_leaf_vector":"1"}},{"base_weights":[-1.5119309E-2,1.8824038E-1,-3.894861E-1,-2.4733495E-2,3.360901E-1,-4.497156E-1,1.2408184E-2,2.3058176E-1,-3.0403897E-1,6.7308575E-1,1.2219395E-1,-4.9588206E-1,-2.0775625E-3,-1.0665606E-2,2.8293032E-2,-2.2001045E-2,1.39241135E-2,3.0581875E-2,7.4167578E-3,1.939014E-2,-1.4012287E-2,-3.335935E-3,-2.0832174E-2],"categories":[],"categories_nodes":[],"categories_segments":[],"categories_sizes":[],"default_left":[0,0,0,0,0,0,0,0,0,0,0,0,0,0,0,0,0,0,0,0,0,0,0],"id":53,"left_children":[1,3,5,7,9,11,-1,13,15,17,19,21,-1,-1,-1,-1,-1,-1,-1,-1,-1,-1,-1],"loss_changes":[3.956613E0,1.0703242E0,9.0988684E-1,1.1220455E0,1.3576581E0,2.90838E-1,0E0,2.1502643E0,1.3907624E0,1.9428658E-1,2.4724946E0,1.1416054E-1,0E0,0E0,0E0,0E0,0E0,0E0,0E0,0E0,0E0,0E0,0E0],"parents":[2147483647,0,0,1,1,2,2,3,3,4,4,5,5,7,7,8,8,9,9,10,10,11,11],"right_children":[2,4,6,8,10,12,-1,14,16,18,20,22,-1,-1,-1,-1,-1,-1,-1,-1,-1,-1,-1],"split_conditions":[3.5E-1,6.16E-1,1.4417022E0,-4.2986427E-2,4.808E-1,7.619E-1,1.2408184E-2,-2.9965156E-1,2.0957614E-1,-4.5454547E-2,7.727E-1,1.352E-1,-2.0775625E-3,-1.0665606E-2,2.8293032E-2,-2.2001045E-2,1.39241135E-2,3.0581875E-2,7.4167578E-3,1.939014E-2,-1.4012287E-2,-3.335935E-3,-2.0832174E-2],"split_indices":[2,6,2,1,5,6,0,2,2,2,6,6,0,0,0,0,0,0,0,0,0,0,0],"split_type":[0,0,0,0,0,0,0,0,0,0,0,0,0,0,0,0,0,0,0,0,0,0,0],"sum_hessian":[5.0008003E1,3.272736E1,1.7280643E1,1.3751449E1,1.897591E1,1.623997E1,1.0406739E0,7.2753983E0,6.4760504E0,6.5342855E0,1.2441625E1,1.4330158E1,1.9098109E0,3.7769356E0,3.4984627E0,4.816033E0,1.6600173E0,5.0242343E0,1.5100513E0,7.0251536E0,5.4164715E0,1.0641408E0,1.3266017E1],"tree_param":{"num_deleted":"0","num_feature":"9","num_nodes":"23","size_leaf_vector":"1"}},{"base_weights":[-7.394734E-4,-2.858095E-1,2.21832E-1,-3.552668E-1,1.49890585E-2,4.5581263E-1,7.175811E-3,1.315326E-1,-4.3307558E-1,5.781968E-1,6.2768552E-3,-3.433488E-1,2.649678E-1,1.4513704E-2,-4.7447328E-3,-1.9579904E-2,1.1760616E-2,2.7916286E-2,5.626936E-3,-1.1389193E-2,1.1279753E-2,-2.2809573E-2,7.2487234E-3,2.7440807E-2,2.528078E-3],"categories":[],"categories_nodes":[],"categories_segments":[],"categories_sizes":[],"default_left":[0,0,0,0,0,0,0,0,0,0,0,0,0,0,0,0,0,0,0,0,0,0,0,0,0],"id":54,"left_children":[1,3,5,7,-1,9,11,13,15,17,19,21,23,-1,-1,-1,-1,-1,-1,-1,-1,-1,-1,-1,-1],"loss_changes":[3.4436085E0,1.2248169E0,1.5275952E0,8.919382E-1,0E0,7.978189E-1,1.6192216E0,2.6320377E-1,9.331913E-1,5.0096655E-1,4.1152462E-1,1.0082049E0,8.324922E-1,0E0,0E0,0E0,0E0,0E0,0E0,0E0,0E0,0E0,0E0,0E0,0E0],"parents":[2147483647,0,0,1,1,2,2,3,3,5,5,6,6,7,7,8,8,9,9,10,10,11,11,12,12],"right_children":[2,4,6,8,-1,10,12,14,16,18,20,22,24,-1,-1,-1,-1,-1,-1,-1,-1,-1,-1,-1,-1],"split_conditions":[5.96E-1,8.181763E-1,5.192E-1,-1.6428572E0,1.49890585E-2,1E0,1E0,8.196347E-1,1.0487804E0,3.429134E-1,1.6502462E-1,7.727E-1,7.235E-1,1.4513704E-2,-4.7447328E-3,-1.9579904E-2,1.1760616E-2,2.7916286E-2,5.626936E-3,-1.1389193E-2,1.1279753E-2,-2.2809573E-2,7.2487234E-3,2.7440807E-2,2.528078E-3],"split_indices":[5,8,6,4,0,7,7,3,3,1,1,6,6,0,0,0,0,0,0,0,0,0,0,0,0],"split_type":[0,0,0,0,0,0,0,0,0,0,0,0,0,0,0,0,0,0,0,0,0,0,0,0,0],"sum_hessian":[5.227485E1,2.2794931E1,2.947992E1,2.1044222E1,1.7507087E0,1.3567524E1,1.5912395E1,2.804957E0,1.8239265E1,1.0439268E1,3.1282556E0,6.602698E0,9.309697E0,1.2232993E0,1.5816576E0,1.7229067E1,1.0101979E0,7.729326E0,2.7099426E0,1.5060256E0,1.62223E0,4.5483413E0,2.054357E0,2.2384129E0,7.071284E0],"tree_param":{"num_deleted":"0","num_feature":"9","num_nodes":"25","size_leaf_vector":"1"}},{"base_weights":[2.0699441E-2,-5.6282353E-2,4.810772E-1,2.689948E-2,-1.187294E-1,6.1834866E-1,-4.3809487E-4,3.929782E-1,-1.746807E-1,3.1905957E-2,1.0675917E-2,-1.5740928E-3,2.6081864E-2,-1.4792103E-3,-1.29306335E-2],"categories":[],"categories_nodes":[],"categories_segments":[],"categories_sizes":[],"default_left":[0,0,0,0,0,0,0,0,0,0,0,0,0,0,0],"id":55,"left_children":[1,3,5,-1,7,9,-1,11,13,-1,-1,-1,-1,-1,-1],"loss_changes":[1.3283734E0,1.5521995E0,3.691249E-1,0E0,9.46154E-1,5.2530646E-2,0E0,3.9848006E-1,5.6749076E-1,0E0,0E0,0E0,0E0,0E0,0E0],"parents":[2147483647,0,0,1,1,2,2,4,4,5,5,7,7,8,8],"right_children":[2,4,6,-1,8,10,-1,12,14,-1,-1,-1,-1,-1,-1],"split_conditions":[3.4672618E-1,3.272E-1,1.25E0,2.689948E-2,-4.363E-1,7.8535354E-1,-4.3809487E-4,-3.3333334E-1,-1.5625E-2,3.1905957E-2,1.0675917E-2,-1.5740928E-3,2.6081864E-2,-1.4792103E-3,-1.29306335E-2],"split_indices":[1,5,2,0,0,2,0,2,3,0,0,0,0,0,0],"split_type":[0,0,0,0,0,0,0,0,0,0,0,0,0,0,0],"sum_hessian":[3.571759E1,3.1352713E1,4.3648777E0,1.7035089E0,2.9649202E1,3.2120237E0,1.1528541E0,2.32866E0,2.7320543E1,1.2862337E0,1.9257901E0,1.190338E0,1.138322E0,1.4827825E1,1.2492718E1],"tree_param":{"num_deleted":"0","num_feature":"9","num_nodes":"15","size_leaf_vector":"1"}},{"base_weights":[7.150245E-2,2.3885557E-1,-3.5695788E-1,3.2270512E-1,-8.725748E-2,-4.7308952E-1,9.528343E-3,4.0453622E-1,1.1325292E-2,-2.1028271E-2,1.9037466E-1,5.326144E-3,-5.581172E-1,1.7785145E-2,-6.671387E-3,1.955424E-2,-2.3447474E-2,2.579336E-2,-4.531027E-3,-2.4288237E-2,-2.3254377E-3],"categories":[],"categories_nodes":[],"categories_segments":[],"categories_sizes":[],"default_left":[0,0,0,0,0,0,0,0,0,0,0,0,0,0,0,0,0,0,0,0,0],"id":56,"left_children":[1,3,5,7,9,11,-1,13,15,-1,17,-1,19,-1,-1,-1,-1,-1,-1,-1,-1],"loss_changes":[3.381228E0,9.4841456E-1,1.0327847E0,6.829798E-1,1.0337867E0,6.657419E-1,0E0,5.6294966E-1,2.182409E0,0E0,8.2246035E-1,0E0,2.1638727E-1,0E0,0E0,0E0,0E0,0E0,0E0,0E0,0E0],"parents":[2147483647,0,0,1,1,2,2,3,3,4,4,5,5,7,7,8,8,10,10,12,12],"right_children":[2,4,6,8,10,12,-1,14,16,-1,18,-1,20,-1,-1,-1,-1,-1,-1,-1,-1],"split_conditions":[4.722222E-1,1E0,2.262931E0,8.295E-1,7.235E-1,-1.459E-1,9.528343E-3,8.947368E-1,-3.197767E-1,-2.1028271E-2,7.727E-1,5.326144E-3,5.739E-1,1.7785145E-2,-6.671387E-3,1.955424E-2,-2.3447474E-2,2.579336E-2,-4.531027E-3,-2.4288237E-2,-2.3254377E-3],"split_indices":[2,7,4,6,6,0,0,3,2,0,6,0,0,0,0,0,0,0,0,0,0],"split_type":[0,0,0,0,0,0,0,0,0,0,0,0,0,0,0,0,0,0,0,0,0],"sum_hessian":[4.496618E1,3.265423E1,1.231195E1,2.598378E1,6.6704493E0,1.0473438E1,1.8385117E0,2.0339386E1,5.644394E0,2.2397685E0,4.430681E0,1.2186342E0,9.254804E0,1.9212875E1,1.1265092E0,3.238243E0,2.4061508E0,1.3246026E0,3.1060786E0,8.232109E0,1.0226954E0],"tree_param":{"num_deleted":"0","num_feature":"9","num_nodes":"21","size_leaf_vector":"1"}},{"base_weights":[-2.2291685E-3,-2.4916807E-1,3.5506928E-1,-5.35954E-1,-1.2660526E-1,7.176142E-2,4.7883946E-1,-1.3020161E-3,-2.3817457E-2,-2.5751603E-1,2.9596356E-1,-2.0315075E-1,2.6418192E-2,6.127126E-1,5.4840585E-3,-1.3470749E-2,1.0191535E-2,2.4904437E-2,-3.625736E-3,-1.3968175E-2,6.4680474E-3,2.7150355E-2,1.8779663E-3,-1.4000094E-2,1.938524E-2],"categories":[],"categories_nodes":[],"categories_segments":[],"categories_sizes":[],"default_left":[0,0,0,0,0,0,0,0,0,0,0,0,0,0,0,0,0,0,0,0,0,0,0,0,0],"id":57,"left_children":[1,3,5,7,9,11,13,-1,-1,15,17,19,-1,21,23,-1,-1,-1,-1,-1,-1,-1,-1,-1,-1],"loss_changes":[4.8562865E0,1.075953E0,7.5447965E-1,2.6310444E-1,1.4098136E0,1.4315127E0,9.77618E-1,0E0,0E0,8.548075E-1,8.3526164E-1,3.8840765E-1,0E0,4.187131E-1,9.228055E-1,0E0,0E0,0E0,0E0,0E0,0E0,0E0,0E0,0E0,0E0],"parents":[2147483647,0,0,1,1,2,2,3,3,4,4,5,5,6,6,9,9,10,10,11,11,13,13,14,14],"right_children":[2,4,6,8,10,12,14,-1,-1,16,18,20,-1,22,24,-1,-1,-1,-1,-1,-1,-1,-1,-1,-1],"split_conditions":[1.2515964E-1,-2.805E-1,5.76E-1,6.375E-1,4.1666666E-1,5.455178E-2,1.4543096E0,-1.3020161E-3,-2.3817457E-2,9.3214506E-1,3.84E-2,-3.219512E-1,2.6418192E-2,7.035E-1,3.149E-1,-1.3470749E-2,1.0191535E-2,2.4904437E-2,-3.625736E-3,-1.3968175E-2,6.4680474E-3,2.7150355E-2,1.8779663E-3,-1.4000094E-2,1.938524E-2],"split_indices":[1,0,5,6,3,8,8,0,0,8,0,3,0,0,0,0,0,0,0,0,0,0,0,0,0],"split_type":[0,0,0,0,0,0,0,0,0,0,0,0,0,0,0,0,0,0,0,0,0,0,0,0,0],"sum_hessian":[5.3037933E1,3.1541416E1,2.1496517E1,8.433917E0,2.3107498E1,7.016245E0,1.4480272E1,1.0547477E0,7.3791695E0,1.7940248E1,5.167251E0,5.2291923E0,1.7870525E0,1.105837E1,3.4219022E0,1.5833473E1,2.1067746E0,2.4699342E0,2.697317E0,3.7649393E0,1.464253E0,9.723537E0,1.3348325E0,2.1191802E0,1.302722E0],"tree_param":{"num_deleted":"0","num_feature":"9","num_nodes":"25","size_leaf_vector":"1"}},{"base_weights":[4.208417E-2,2.2420691E-1,-2.4478737E-1,7.2577333E-1,1.0239724E-1,-2.0228645E-2,-4.8711587E-2,7.5711934E-3,3.7436306E-2,2.4401568E-1,-3.7346417E-1,1.5841268E-2,-1.9997463E-1,-2.150178E-3,1.9662874E-2,-1.8251006E-2,-2.0506608E-3,-1.8170308E-2,2.3682048E-3],"categories":[],"categories_nodes":[],"categories_segments":[],"categories_sizes":[],"default_left":[0,0,0,0,0,0,0,0,0,0,0,0,0,0,0,0,0,0,0],"id":58,"left_children":[1,3,5,7,9,-1,11,-1,-1,13,15,-1,17,-1,-1,-1,-1,-1,-1],"loss_changes":[1.8760788E0,1.2602437E0,6.923683E-1,2.8552818E-1,1.3540143E0,0E0,6.9193286E-1,0E0,0E0,1.1355815E0,1.0182774E-1,0E0,5.1861507E-1,0E0,0E0,0E0,0E0,0E0,0E0],"parents":[2147483647,0,0,1,1,2,2,3,3,4,4,6,6,9,9,10,10,12,12],"right_children":[2,4,6,8,10,-1,12,-1,-1,14,16,-1,18,-1,-1,-1,-1,-1,-1],"split_conditions":[0E0,1.5757576E-1,4.608E-1,-2.5798213E-1,-3.5042736E-1,-2.0228645E-2,6.575E-1,7.5711934E-3,3.7436306E-2,-7.19697E-1,5.07326E-1,1.5841268E-2,-3.197767E-1,-2.150178E-3,1.9662874E-2,-1.8251006E-2,-2.0506608E-3,-1.8170308E-2,2.3682048E-3],"split_indices":[3,4,6,4,3,0,6,0,0,3,4,0,2,0,0,0,0,0,0],"split_type":[0,0,0,0,0,0,0,0,0,0,0,0,0,0,0,0,0,0,0],"sum_hessian":[3.3858204E1,2.0843794E1,1.3014411E1,3.104084E0,1.773971E1,4.9062324E0,8.108179E0,1.4085853E0,1.6954988E0,1.4046594E1,3.6931152E0,1.6471287E0,6.46105E0,6.731974E0,7.3146195E0,2.6069455E0,1.0861697E0,2.881407E0,3.579643E0],"tree_param":{"num_deleted":"0","num_feature":"9","num_nodes":"19","size_leaf_vector":"1"}},{"base_weights":[1.6985176E-2,1.747711E-1,-3.8685837E-1,3.0608767E-1,-2.1722135E-1,-2.020179E-2,-5.169919E-1,3.1050231E-2,1.9702406E-1,-2.359009E-2,5.759971E-2,-3.5631484E-1,1.8924696E-2,-2.3963071E-2,-4.9769334E-3,2.6384158E-2,1.7972271E-3,-2.0361444E-2,1.5639137E-2,-1.7411027E-2,-3.9926562E-3],"categories":[],"categories_nodes":[],"categories_segments":[],"categories_sizes":[],"default_left":[0,0,0,0,0,0,0,0,0,0,0,0,0,0,0,0,0,0,0,0,0],"id":59,"left_children":[1,3,5,7,9,11,13,-1,15,-1,17,19,-1,-1,-1,-1,-1,-1,-1,-1,-1],"loss_changes":[3.528789E0,2.1124406E0,7.3253465E-1,1.3950336E0,1.1149603E0,1.0174607E0,2.9448438E-1,0E0,1.7886155E0,0E0,1.5189371E0,2.977556E-2,0E0,0E0,0E0,0E0,0E0,0E0,0E0,0E0,0E0],"parents":[2147483647,0,0,1,1,2,2,3,3,4,4,5,5,6,6,8,8,10,10,11,11],"right_children":[2,4,6,8,10,12,14,-1,16,-1,18,20,-1,-1,-1,-1,-1,-1,-1,-1,-1],"split_conditions":[4.722222E-1,1E0,8.08E-2,-9.3177027E-1,-7.6719575E-2,5.455178E-2,5.76E-1,3.1050231E-2,-4.027778E-1,-2.359009E-2,0E0,1.6267942E-1,1.8924696E-2,-2.3963071E-2,-4.9769334E-3,2.6384158E-2,1.7972271E-3,-2.0361444E-2,1.5639137E-2,-1.7411027E-2,-3.9926562E-3],"split_indices":[2,7,0,8,3,8,0,0,3,0,8,1,0,0,0,0,0,0,0,0,0],"split_type":[0,0,0,0,0,0,0,0,0,0,0,0,0,0,0,0,0,0,0,0,0],"sum_hessian":[5.3317837E1,3.874643E1,1.4571406E1,2.9187748E1,9.558681E0,4.119575E0,1.0451832E1,4.343908E0,2.484384E1,3.571466E0,5.9872146E0,2.6153672E0,1.504208E0,8.209257E0,2.242575E0,5.3216457E0,1.9522194E1,2.022581E0,3.9646335E0,1.4668258E0,1.1485412E0],"tree_param":{"num_deleted":"0","num_feature":"9","num_nodes":"21","size_leaf_vector":"1"}},{"base_weights":[-1.9283092E-3,-3.2065073E-1,1.3037029E-1,2.6533732E-1,-4.34248E-1,6.197648E-2,5.1741487E-1,1.5097227E-2,8.3079084E-4,-1.4531423E-1,-2.4591712E-2,-6.6354685E-2,2.4444748E-1,2.7584853E-2,2.5027783E-3,3.2918942E-3,-1.9467875E-2,1.4016119E-2,-8.3666E-3,1.4152672E-2,-1.9057665E-2],"categories":[],"categories_nodes":[],"categories_segments":[],"categories_sizes":[],"default_left":[0,0,0,0,0,0,0,0,0,0,0,0,0,0,0,0,0,0,0,0,0],"id":60,"left_children":[1,3,5,7,9,11,13,-1,-1,15,-1,17,19,-1,-1,-1,-1,-1,-1,-1,-1],"loss_changes":[2.3398442E0,1.1986191E0,1.0062435E0,8.162728E-2,6.415992E-1,8.233849E-1,